{"sizes": [13, 30, 3], "weights": [[[0.34984141921408235, 0.044203740767848596, 0.008968061348593258, 0.23582362435505963, -0.25357164875390953, -0.4148692499033085, -0.10853114713892406, -0.2798718730963214, 0.06328513747309443, -0.06302900394699552, -0.19848562347015233, 0.2004730499235245, -0.4018718026988723], [-0.10246912057473306, -0.29149256245667665, 0.44474464614022097, 0.48634302368396004, 0.03830016790552028, -0.05656213432111628, 0.24236874965467203, -0.4216461156882908, 0.35594078927154243, 0.0029477444286902725, -0.12289497385599717, -0.15615042672198784, -0.14473072848036217], [0.093142821724225, -0.32199552557832545, 0.043013813994779646, -0.29426875454204104, 0.07705149090743726, 0.505609496381153, 0.0912263466120585, 0.018955876111881462, 0.16898792233262905, -0.06709267856175773, -0.6585085897177335, 0.21973948939010704, 0.16980806744028157], [0.0063612072960716, 0.29289348581298974, 0.09916681690114831, -0.5345986911136344, 0.1547999539890666, -0.2391150248012522, -0.03572463799727989, -0.25930998027318264, -0.2919979360542213, -0.24310032833426348, -0.20925154526740425, 0.5446198513488196, 0.3797987501286562], [-0.18994548448259505, 0.05648352968288294, -0.4441888517374571, -0.31810952401210146, 0.20376430777329463, -0.4068618216521173, 0.20140163466121014, -0.35942998146624855, 0.13490024649082516, -0.03449759451147527, 0.2094288658894676, 0.05074320072525704, -0.3039816272343022], [-0.050855008829177276, -0.06825156754236146, -0.005084036861387003, 0.022440600242104394, -0.21611070289816206, 0.4504076435017081, -0.40221085464503414, -0.0578259876163931, -0.3524726269300223, 0.3293379726036602, 0.3398681910823027, -0.10954625234767507, 0.016874689889774305], [-0.18820491047826796, -0.2715369080283667, 0.21031264980653863, 0.15600333750212964, -0.6017103421737586, 0.0005081659997111283, 0.4614805918260051, -0.206912038170173, -0.1585846517447101, -0.07555959616141217, -0.29606555616653557, 0.14167016737056273, -0.3749377922353821], [0.05981215855875402, 0.12478862667269183, -0.40681036092234346, 0.06863863000946592, -0.06138686285252144, 0.10476572016435838, 0.009736009808824218, -0.1323839789129174, 0.15722305725344085, -0.03452854561070143, 0.2894571335831395, -0.3974846149534854, -0.11031393745070919], [0.28146346556875185, 0.24654127966087788, -0.12656373890603415, -0.06895206795040464, 0.0958956974956283, 0.1483280359723541, -0.103621011451054, 0.26464535183894616, 0.10758653389564188, 0.08871970702134421, 0.024905403482154167, 0.1794939063066108, -0.04426987660046945], [-0.004134227310648768, -0.2203266437309435, 0.2652132147314621, 0.03252628042481996, -0.33985671483638763, 0.015038248755816564, -0.02039121151289635, 0.2723669599305053, 0.3034192282787099, -0.12134221784300002, 0.15222011594965645, 0.2171278493677407, 0.09873175810424543], [-0.48785618925900986, -0.38983428505678414, 0.23472997157847356, 0.3151570859525162, 0.09939224684031443, -0.2201250196720732, 0.37934277882665013, 0.00530969133157989, -0.4593443316428241, 0.07750101527924137, 0.17823171000784163, -0.05102629141531247, 0.39501074340514264], [0.05652577366992315, -0.5592818152416213, -0.10453909303605409, -0.0071778736573614044, 0.04577187603695681, -0.044154147408962834, 0.550840447010773, -0.02254587109918662, -0.16122666940909153, 0.1801303137612988, -0.0775775795402739, -0.26202930104687977, 0.14909012655648327], [0.2503992096960353, -0.2737294211396156, 0.16046792680978858, -0.21446097319082416, -0.017124739620443228, -0.006377953560083518, -0.05697102622800248, 0.4486163205114422, 0.5576429786816128, 0.16973377216642552, 0.5638485198431187, 0.09144626718784059, -0.15601637760607215], [0.2268588426376277, 0.7257628985434518, -0.6549752899264744, 0.40203967023663545, 0.2477231066321507, 0.13816079519057348, -0.0443949156720038, -0.061883821702032965, -0.46791096727088344, -0.4386511063532256, -0.02832512976132804, -0.13274569000938505, -0.06887888804662375], [-0.06134951720986282, 0.01583598743381189, -0.018051173346614133, -0.04026008207982988, -0.05517668791701455, -0.2193165456182399, 0.24905271948024996, 0.057131760390474684, 0.09407022818874311, 0.07864203437417537, -0.2524085734309494, -0.1395168706236913, -0.5436575921499083], [0.060241454947649126, 0.09942721225893611, 0.03437636321500135, -0.3076452736940418, 0.2393012399098561, 0.03650947333611453, 0.3669018158788152, 0.5153212352813716, -0.09325309036747925, -0.1433688787059607, -0.04144379171957934, 0.08296305026188482, 0.0014222454779259652], [0.1512141863748368, -0.5830737820037705, 0.09256126514322201, -0.64959833631095, -0.013731257318831729, -0.26638233269308714, 0.21294170449357863, -0.060775442670285125, -0.16128781347317037, 0.0551827884919245, 0.40069602701130763, -0.20546242488540367, 0.5789808538582888], [-0.7271389160410412, -0.14416463643558752, 0.727105487964824, -0.021756167138682187, -0.4423751709080249, 0.05953703249528363, 0.6147930328574769, -0.5196934035650115, -0.18499486000063237, -0.014445264063792838, 0.08792118772356065, 0.15594234409329133, -0.22583990709125068], [0.025891552203267363, -0.33523453897388694, 0.4105423904220367, 0.41916925407062994, -0.34303166684884284, -0.29573322654917317, 0.09619386781274436, 0.2689369352518707, -0.342939184880051, 0.09455326489709501, 0.37665430509969045, 0.4706378044696483, -0.41835905119164957], [-0.2400779240676056, 0.20816422453877498, 0.26403746071831385, -0.18861666728531135, 0.21849818028494386, 0.09854859040337414, -0.41810543186245297, 0.046829082705105135, 0.0189788771575366, -0.13886493356124713, -0.38624874943164916, 0.24998885380634878, 0.07402210226922244], [-0.36224702399001735, 0.02830858607590689, -0.10528907288515459, -0.09636250981840733, -0.019102265668380785, -0.732914249050953, 0.3704440915333956, -0.21831395469351847, -0.004945264470602858, -0.25045453538300766, -0.0914269272949269, -0.4680635918669867, -0.33511293433246736], [-0.2674064344987646, -0.43399518309136353, 0.007976677217052095, -0.25265569815066763, 0.1813066082286152, 0.20094288951522468, 0.36109909397095885, 0.126814313829965, -0.6896310633941858, 0.38270776549279173, 0.12373222480802869, -0.3010169700410465, -0.01183922504732339], [-0.04105284567919875, 0.35896042070524486, -0.17964875339627834, -0.06408974561887015, 0.10060281762801138, 0.025687267526063384, 0.06509680955265938, 0.058500723131025285, -0.28919773449602054, 0.04247323811686521, -0.0027580991274504417, 0.15990278784804132, -0.06300936566967395], [0.2848083000725879, -0.17766761034800038, -0.09573741210314234, 0.21931490038041554, 0.47972840767217756, -0.7810615995490096, -0.12550415726288008, 0.2154323704702384, -0.24636525588048747, -5.627150326681808e-05, -0.007682498202239744, 0.4035179735010373, 0.46109950842505765], [-0.024811677135068478, -0.07309275876983284, 0.16556800588555332, 0.233508350752133, -0.28435779056239463, 0.19905252026829015, 0.4937642520738924, 0.16720565664646578, 0.08952325436617183, 0.31449074247317904, -0.029544590033549548, 0.1068222280680268, -0.319257617250008], [0.12325946532116086, 0.1382213936298327, 0.6157093215770544, -0.14598762974284088, -0.20217427649371358, 0.32258844199252135, 0.07726400150404622, 0.2842623175915381, 0.037413152202521685, -0.042727291868959086, 0.15771280750171207, 0.1859159723742772, -0.3845609194092599], [0.05113361655739717, 0.13676751446826257, 0.11277934523070367, -0.2120541916604413, -0.09868307087520004, -0.3292386729223621, -0.06893065256186764, -0.27227065793304894, 0.26521921063239406, -0.2102240252071874, 0.19121302977232288, -0.11254404429884719, 0.346685027707142], [0.045002038202105674, 0.00578325125683121, 0.11500918868400847, 0.35384091974643206, -0.1481078592543225, 0.050954820525541705, -0.2708553970017359, 0.12218865911299141, 0.38837093713025084, -0.08849555466953288, 0.2121637582182011, -0.188667539032859, -0.34984681337219153], [-0.16863708306347666, 0.17341329751767715, -0.07786899775914333, 0.5044331441548006, 0.411142773222059, 0.26019843137612314, -0.0472768528236681, -0.2719883881655401, -0.36040606923193375, 0.3881884455724583, 0.14761145383916804, 0.27312887460641744, 0.04511202971384367], [0.38943238409063236, -0.09101264276509939, 0.12984928989676972, 0.5820016124704469, 0.011296170692235284, 0.24011870621241352, 0.013934249628182302, 0.1775711263474782, -0.2720641460120922, 0.11132154679444405, 0.45791404247953477, 0.43443124893793694, -0.09623997957524735]], [[0.7387195740058167, -0.20132657299515808, -0.1576814634244201, -0.08504775041234935, 0.47120280770616385, -0.0793409617446403, 0.21436560937486862, 0.6398581489967579, 0.39429370759915233, -0.05343189498835003, 0.20606828131513982, -0.4223234978280698, 0.058398806887943064, 0.23136504458803508, -0.08048600058501279, 0.1844744235108269, 0.18090029050233636, 0.3460302798913525, 0.35340634713482266, 0.4036577839602414, 0.06450066504348403, -0.05508791116630921, -0.15252306852456204, 0.23148960678405203, 0.12628135518872446, 0.11114537030699702, 0.09594602515714797, 0.11656026058850931, -0.18488196489890457, 0.16409047798273346], [-0.11408127862104982, 0.08947416695187149, 0.35090430985403465, -0.14725174737308672, -0.09658898045022664, 0.050604305273268806, -0.23341149194908173, 0.07196388093011162, 0.20927972849304502, 0.009781773965588653, -0.14505689044728315, -0.03945349870472062, -0.0850135650041468, 0.001708500463081887, -0.17750443753712705, 0.10539338648160355, -0.35307161268594633, 0.22133725727742348, 0.3409112865215336, -0.1692139231625219, 0.31126532450314975, 0.21933385006437828, -0.049665172802546044, -0.11057305014798269, 0.03934958113194535, 0.13263654081354279, -0.11087830035534434, -0.22038913859241563, -0.13729153606487987, -0.35318024005357335], [-0.2174809000784407, -0.14033709177062445, 0.21728415643871907, 0.34261145072268634, 0.027968583217197522, 0.12178394862252016, 0.017947251177939456, 0.16348341034275463, -0.11098247500015333, 0.22630741932456314, 0.019807682077286885, -0.2678099783287012, 0.0095147548703798, 0.007238857798286739, -0.22223369267970391, 0.37367231050705424, 0.1401653118542713, 0.006714853989142305, -0.14328643000212696, -0.1751802224266169, -0.01825658170370357, 0.32778018456175234, -0.5267208815949449, 0.2216781496346563, -0.11746722311870661, -0.28500132871691014, 0.18855450194737797, 0.18957413585860936, 0.15094463094431618, 0.22274789689505245]]], "biases": [[[-1.6573212293821569], [-2.4416726470766785], [-0.1462267406644392], [-0.09352532369732787], [-0.1862279277948998], [1.1400638993625638], [-0.7603606915246559], [-0.5903519956858918], [-0.3014243956304871], [0.012202587967681104], [1.2611921657045644], [-0.3771901425694691], [0.6055974966166829], [-1.308959609975138], [-0.07892226798220574], [-0.1863743195252409], [0.7611247179618703], [0.3011647762671459], [0.57766699016629], [2.6948937067456096], [-0.3633860637138177], [-1.2405041688276133], [-1.0606215102490268], [-0.013336888937581582], [0.41368913795941054], [0.33806525664047715], [-1.234888365370759], [-1.188400780649531], [-1.782474168548009], [0.4410460824162639]], [[0.21915324552965287], [-2.0080795085476764], [-0.5088259580203955]]], "trainCost": [1.8762174876030437, 1.613081678730804, 1.4745460991174817, 1.4000228701174553, 1.3587203084052422, 1.334448766365599, 1.3194889881501837, 1.3098100495706, 1.3031685055532514, 1.2984218972767694, 1.2950029734642594, 1.2923721310264273, 1.2903407011106458, 1.2887481212387741, 1.2874861420743997, 1.2864466012093432, 1.2855915930891038, 1.284898650014649, 1.2843036617844104, 1.283810759448452, 1.2833817150778615, 1.2830149090701088, 1.2826862623086595, 1.2823906968989756, 1.2821286286708533, 1.2818842676751303, 1.2816600654764039, 1.2814479350010108, 1.2812488161730986, 1.2810567930833627, 1.2808749490947946, 1.2806966314192285, 1.2805208307524356, 1.2803491136288236, 1.2801831214661412, 1.2800165777360777, 1.2798508042331103, 1.2796867256374536, 1.2795239336097721, 1.2793573479512927, 1.2791957046722668, 1.2790374093291, 1.2788742613664146, 1.2787145171236178, 1.2785542272653674, 1.2783950748545676, 1.278234615624179, 1.2780738242839242, 1.2779140735545576, 1.2777539153944295, 1.2775934984084474], "testCost": [1.8145291315879144, 1.5545998735622633, 1.4188980623466987, 1.3463894655241169, 1.3063824266567765, 1.282960122238627, 1.2684502769738026, 1.2589598593858633, 1.2524041847794904, 1.2476667780267212, 1.2441631575223593, 1.2414803778469592, 1.2393332533505501, 1.2376512086711258, 1.2362162505616463, 1.2351361594332424, 1.2341926622983472, 1.2333824246546667, 1.2327515058550527, 1.2322067497272173, 1.2317936574946933, 1.2313216869815307, 1.2310346553446907, 1.2306789655570496, 1.2304507588417826, 1.2301850558666951, 1.2299864348317593, 1.229804405942427, 1.229520785705825, 1.2294284861283702, 1.2292891175587406, 1.2290881286245416, 1.2288944558256447, 1.2286764456910624, 1.2285942644099166, 1.2284515255804807, 1.2282542270113346, 1.228099067193032, 1.2279531805081476, 1.2276925506688678, 1.2275302179196639, 1.2274588039886425, 1.2272220207836608, 1.227092137698154, 1.2269377179313183, 1.2267983802856317, 1.2266212848144393, 1.2264506883945478, 1.2262235831070436, 1.2261552987777096, 1.2259768728089158], "trainDelta": [[[-0.38953454052046665], [-0.05035528417313222], [-0.28343036599429644]], [[-0.26873310777065657], [-0.04783982038786253], [-0.2183311978803512]], [[-0.19270876079122481], [-0.04530870954911904], [-0.15980154484880318]], [[-0.14340126537427456], [-0.04277592134003369], [-0.11364724584941337]], [[-0.11026562545097009], [-0.040229210905664815], [-0.07990070698974017]], [[-0.08700529655618439], [-0.03768708777897295], [-0.05524375003292998]], [[-0.06987413646283878], [-0.03519978148186809], [-0.038085943486576256]], [[-0.05697038465662787], [-0.03276703739354599], [-0.026414087115656584]], [[-0.047004175045204724], [-0.030406439508862387], [-0.017918028924258984]], [[-0.03908913755964363], [-0.028129533140034142], [-0.011770314184381948]], [[-0.03286736238029395], [-0.025960656928909913], [-0.008020860825759474]], [[-0.0277705093470192], [-0.02386538379039989], [-0.004867710885350979]], [[-0.023544311779505455], [-0.021884325951980498], [-0.0031015227079463103]], [[-0.02008640191187325], [-0.0200134868645354], [-0.0017353441976965282]], [[-0.01722004353971489], [-0.01825828973147762], [-0.0017827634981837416]], [[-0.014751451051470391], [-0.016627560487612023], [-0.0006840853991880047]], [[-0.012643246086754668], [-0.015091071297498804], [-0.00041066868634168145]], [[-0.010971988007095897], [-0.01365288116756107], [-0.0009075526808882433]], [[-0.009424560105456989], [-0.012342703580093341], [-0.0004945165876290042]], [[-0.008145800514978192], [-0.011166411397075743], [-0.0004613982739088028]], [[-0.007012935307127301], [-0.010078121217382824], [0.00021827764769621715]], [[-0.006118130077482483], [-0.009063003061373249], [-0.0006772731688873383]], [[-0.005303314547481518], [-0.008151431035415498], [3.0088928190801235e-05]], [[-0.004541576714398674], [-0.00731150390014475], [-0.0003482606564798214]], [[-0.003952555314484966], [-0.006577962324983645], [0.00014351663704413822]], [[-0.003351910729290081], [-0.005907227358187367], [0.0001393685672294328]], [[-0.0028618044663744195], [-0.005317536600996709], [0.0005604426962102784]], [[-0.0024349517971335687], [-0.004748021669571171], [0.0009554296717887719]], [[-0.0021162862134728256], [-0.004252325221397007], [1.125323266912093e-05]], [[-0.0018029129956136994], [-0.0037766848533748623], [0.001085821057022486]], [[-0.0014980001201267813], [-0.003399991605280697], [0.0016364592217871091]], [[-0.0012301297979745722], [-0.0030858797658458084], [0.0014865659055570044]], [[-0.001028082181708359], [-0.002761593038461537], [0.0012679141064373897]], [[-0.0008859695439933715], [-0.0024869502200678254], [0.0006922556670119435]], [[-0.00070467551954785], [-0.0022401170934152866], [0.0016317999322588118]], [[-0.00057682100923317], [-0.001993194780300327], [0.0018274584453051531]], [[-0.00041375306784388784], [-0.0018284781751993304], [0.001569573235733472]], [[-0.00032501222824516085], [-0.0016244438075112208], [0.0015833732153264308]], [[-0.00022930112447248658], [-0.0014367906314084727], [0.001714636054158814]], [[-0.00013581996585724897], [-0.0012292881194826994], [0.0006097623285001121]], [[-2.7342438131282333e-05], [-0.0010943240426639794], [0.0006274931759451003]], [[8.243989918940863e-06], [-0.000991183118935147], [0.0015104062015198806]], [[1.752331651690097e-05], [-0.0008760495282355004], [0.0005803367334581073]], [[9.646143183433935e-05], [-0.0008008014679042127], [0.0009454722867327062]], [[9.011502976981403e-05], [-0.0007245591801315214], [0.0008991444359895419]], [[0.00017451003917752544], [-0.0006617480015236636], [0.001177856772832689]], [[0.00021626757247026203], [-0.0005882601942064547], [0.0009720078456081803]], [[0.00025406265570739923], [-0.00048255478712837214], [0.0007998796696463224]], [[0.00022520167081531612], [-0.0004410652089108884], [-5.1568248084103606e-05]], [[0.00023479101451434893], [-0.00039095667493338975], [0.0009013757660920309]], [[0.0002551087288099306], [-0.0003219079323729617], [0.0006477435903767151]]], "testDelta": [[[-0.4025786004296979], [-0.04285054754147185], [-0.2598862726982266]], [[-0.2818940142849903], [-0.04033992875897411], [-0.19486785495740905]], [[-0.20594333043189206], [-0.037813890657911665], [-0.13641840051243342]], [[-0.1566792822228037], [-0.03528631534582514], [-0.09033044330136168]], [[-0.12356932053673021], [-0.03274495070832635], [-0.056634472164869595]], [[-0.1003247499470744], [-0.03020824961323522], [-0.03201648893036536]], [[-0.0832037738257751], [-0.02772631709948193], [-0.014888554202033385]], [[-0.070306809590978], [-0.025298884445858587], [-0.00324020395409751]], [[-0.06034530049288237], [-0.022943487701935272], [0.0052358998942387686]], [[-0.052433650142597626], [-0.020671632034900973], [0.011366175219019045]], [[-0.04621439940726137], [-0.018507587888649615], [0.015100676779238511]], [[-0.04111950481002407], [-0.01641700527587551], [0.018239505307828845]], [[-0.03689489814104587], [-0.01444039026234783], [0.01999275531058404]], [[-0.033438316725823286], [-0.012573749017275909], [0.0213463950483382]], [[-0.030573111014446732], [-0.010822484061665569], [0.02128789640870321]], [[-0.02810554851713604], [-0.009195396464126907], [0.022374295950979093]], [[-0.02599829458322367], [-0.007662323297780883], [0.02263623513631301]], [[-0.024327929893352248], [-0.006227313418356752], [0.022128645964766276]], [[-0.022781343908298484], [-0.004920006715289619], [0.02253008663439686]], [[-0.02150340246692346], [-0.00374625468679998], [0.022551973470656933]], [[-0.02037133032270796], [-0.0026602877414898967], [0.023219760399030617]], [[-0.019477330428667276], [-0.0016473043520751317], [0.022313897704953758]], [[-0.018663291360722572], [-0.0007376130029847806], [0.02300928801146194]], [[-0.01790232740595336], [0.00010062005302762406], [0.022620095346962136]], [[-0.017314086062486144], [0.0008327328560752978], [0.023100103882096993]], [[-0.016714210238106764], [0.001502203052382457], [0.023084697631961984]], [[-0.016224873875132117], [0.00209083204417757], [0.023494038263504106]], [[-0.01579879260192716], [0.0026593424606945913], [0.02387731852030787]], [[-0.01548092014301439], [0.0031542261167762146], [0.022922852973771772]], [[-0.01516831869562885], [0.0036291006271956996], [0.02398496852886445]], [[-0.014864181981293767], [0.004005282591600873], [0.02452368779011244]], [[-0.01459709057552671], [0.004319043582209055], [0.02436262080654202]], [[-0.0143958321096023], [0.00464295717255072], [0.024132843321114636]], [[-0.014254528527357247], [0.004917355797686708], [0.023546440794826477]], [[-0.014074013848644052], [0.005164012736587955], [0.02447361575934836]], [[-0.013946960893760773], [0.005410766951468662], [0.024657639011203072]], [[-0.013784677781070794], [0.005575523705459349], [0.024388613208719604]], [[-0.013696741947058479], [0.005779499880413905], [0.024390968141837274]], [[-0.01360182726311113], [0.005967140777169163], [0.02451062995852087]], [[-0.013509150177108886], [0.006174586229611218], [0.02339550666977615]], [[-0.013401459181097445], [0.006309672059910944], [0.02340176801097351]], [[-0.013366674719846995], [0.006413012477641172], [0.024272227927893957]], [[-0.013358217033553894], [0.006528327320215636], [0.023331672039042517]], [[-0.013280068298790408], [0.006603852312878227], [0.023684900287456404]], [[-0.013287235353037836], [0.006680373589122657], [0.023627072791412778]], [[-0.01320362020773945], [0.006743494367271517], [0.023893959407457786]], [[-0.013162658275208742], [0.0068172711069869486], [0.023676803416240764]], [[-0.013125659917483552], [0.006923185977289911], [0.023493268074514906]], [[-0.013155347982743265], [0.006965049105145489], [0.022631167272022457]], [[-0.013146564238531225], [0.007015506490904364], [0.023571419337208133]], [[-0.013127047756078961], [0.007084864467114273], [0.023306461762340705]]]}
