{"sizes": [13, 50, 3], "cost": "meanSquareError", "weights": [[[-0.15231209928955824, -0.019112480364587216, -0.41458197470971436, 0.02590994795147875, 0.38095754875858684, 0.11576346269713503, 0.0822302363399011, -0.341972947828328, -0.08162335475050744, 0.2759533670611599, -0.6832333380695138, -0.03622902899143827, -0.2891622292019547], [-0.7854265765256147, 0.08939753956902831, -0.03800572274754522, -0.07880559925505895, -0.0012897571705007436, -0.02762392577769205, -0.045936361361023366, 0.14866955077557967, 0.32424494685652694, 0.0417393912626375, -0.2863139278722244, -0.10350905533896484, -0.5770352532192793], [-0.28545425314297995, 0.3160894928718903, -0.04255581009967136, 0.5480423511665958, -0.020015307593343485, -0.06221350780937029, -0.09948744460728612, 0.15151419381655584, 0.05239284442518728, -0.06461020783259262, 0.057498149168223, 0.667052053120446, -0.48067320766885097], [-0.23734596544411327, -0.08771264897554354, 0.4431873769218173, -0.002114564161390461, 0.2096660924921066, -0.2507954011485182, -0.1300549171558188, -0.17000639347486332, -0.25009720673940794, -0.33112292143050215, 0.12185713568673098, -0.22232257858769935, 0.17587118261965826], [0.30439875584158804, -0.3583807286555347, 0.01022421343754306, -0.2567187926851645, 0.2743048348317937, 0.17015597509962194, 0.1584607693972428, -0.2469359206949, 0.4447167068354979, 0.24512485326839803, 0.5556487294666473, 0.013993647872835583, 0.1877711036865402], [0.7488171554545675, 0.07585525223203068, 0.35720963645916476, -0.03255321637538556, 0.06893666024266297, -0.025027438859640854, 0.1896644331101712, -0.25624609229601764, 0.0447039161042897, 0.21844736478850874, 0.13982045271676816, -0.33689679949851936, -0.5125754464841438], [-0.3008842757657683, 0.05848211672710017, -0.43632162601760865, -0.4097261319571224, 0.15468662994015903, -0.20948525672806528, 0.0950790335850178, 0.056717930030108096, 0.30181813593206824, -0.11730046696301051, -0.08537007482049955, -0.2785963110063518, 1.1904399629094236], [0.13322448291146288, -0.22480815529415626, -0.21297674768486113, -0.1450748418598383, 0.11671327158181043, 0.42082941613074865, -0.2616778733425451, -0.11458132209669113, 0.2316566954254562, -0.17858429929735195, 0.24279786944115117, 0.5429709343829514, 0.6285561549518297], [-0.29555193777165734, 0.4686537941425843, 0.021646321229231696, 0.309152603691491, 0.19515910073280354, -0.20273027181648706, 0.07799694302280342, 0.05525244971797866, -0.2557196237139654, 0.08502256126640298, 0.03856589286766687, 0.003767929915685821, 0.2899453212349891], [0.19167694554009007, -0.08888184847159836, -0.040676326305851704, 0.24606993837254437, -0.16226685139244929, -0.17061281533500958, -0.027133604306329613, 0.248431495817685, -0.0036055946288828557, -0.29705585230963877, 0.18470923484260748, 0.1744609107228572, -0.07816316181585214], [0.25703599356581047, -0.19269638510249454, 0.016153301596865805, -0.37211208637024445, 0.02282827560955061, 0.38691763668020174, 0.3984899006505196, 0.02769890478892061, -0.16112169523311282, -0.23235511955447125, 0.14717887819535866, 0.416771345767035, 0.13296295706297503], [-0.016794569356767895, 0.011818370105558642, -0.3769403443333857, -0.28958431230456005, -0.19930055963453036, -0.8979909748350019, -0.15152279260108031, -0.17605808970574638, -0.4976482446117116, -0.14802362181697257, 0.38594899084460105, -0.02136794757366152, -1.008437267112148], [0.07773435794027814, -0.4166217624904504, -0.28521618207263905, -0.22369853493952305, 0.5128305029078223, 0.09178512556269304, 0.040196752638586124, 0.30131802177130157, 0.11176356613927123, -0.27071675673317946, 0.25636889016667996, -0.2662745943196327, 0.5393202540149524], [0.577559620056833, -0.03336563724434346, 0.1400893806982757, 0.06663939622723168, -0.010073303897769942, -0.05728135066265308, 0.3662870471462912, 0.056349037418426735, -0.10556747952346228, -0.1205612676982969, -0.30197924216837085, -0.30304564771111375, -0.2412990322943335], [0.4882650654449778, 0.19227614379851607, -0.21141722171843857, -0.03773122867237745, -0.3044324516186898, 0.1403579769682298, -0.006216002945950197, 0.3628386340894224, -0.4872631218663021, 0.31579635948845564, 0.3137110736066278, -0.112075905095627, 0.07919909629939968], [0.33815168146098046, -0.16284076074807588, -0.2645118713632667, 0.002841623565994886, -0.08973288900135881, 0.2913531202527233, -0.149241724594274, -0.6861519071969375, -0.12038632981818644, -0.13432746231074502, -0.5011762630059722, -0.22864123311252338, -1.5522039466699131], [-0.19117279841643803, -0.08361726712086731, 0.430562152165798, -0.025136292631316184, 0.023721317049658106, -0.3982963248323816, -0.7259012758882998, 0.04600225674421811, 0.168637780801016, 0.7963380852236869, -0.1049065789745891, -0.11284571506892176, 0.04219863328604458], [0.16935323410326972, 0.1120512302932649, -0.04220319940739708, 0.014758558025990444, -0.12000150524363414, -0.3451953183812215, 0.18357743251924658, -0.41455367871243765, 0.19313629621177614, 0.43639796093764743, -0.23649740090488428, 0.15501247450751074, 0.2269692151664297], [-0.06880251359122629, 0.2611636770580329, 0.1088565290992183, -0.12155546090710187, 0.024550287713715202, 0.4507834946010656, -0.3344852353975606, 0.037088561147875246, -0.09635260515221628, 0.19537410188636956, -0.21774724559786007, 0.23785752183877312, -0.05411302028463308], [0.06891521662572359, 0.001998685408601045, 0.26922161893591595, -0.2955574610988382, 0.18850513268855182, 0.25247551864009266, -0.015863326276557788, 0.28802737068665674, 0.5238171712631142, -0.04827341912005497, -0.05513148491975774, 0.009948166838615788, 0.7037662507679403], [0.2962787701521485, 0.5753403630405496, -0.13854897329074034, 0.11395855099972758, -0.35201013433215517, 0.7387182237374879, -0.433892650468019, 0.19356986201421156, 0.02280326716289901, 0.17827157972119922, 0.045514815775525894, 0.14532424816376815, -1.0751725927522622], [-0.3446157190194109, 0.14172544381979796, 0.4484741497604738, -0.16642634351975663, 0.559214551523676, 0.25354225398073527, -0.22122978506560886, 0.0031286514451754647, 0.45656920765675657, 0.4406627513108151, -0.19947956377950485, 0.23028158536757354, -0.6808845055537537], [0.0067290452904055975, -0.30693001399778364, 0.18305446421341862, 0.17215732635514078, -0.017345124713276802, -0.4783569884551584, -0.05037103772713837, -0.22446169319578826, 0.1405624665683415, 0.07764474936118769, -0.19320412247367197, 0.5386990552637471, -0.3255295054699989], [0.17554234039876562, 0.14730686959009756, -0.1093697025062691, 0.3926925893710255, -0.28974446628915473, -0.07500405075133068, -0.41113299884244775, 0.07112673761307037, -0.6147773221783132, 0.120426763314717, 0.6201787327879303, -0.09147481836806988, -0.26520632658694127], [-0.1298370790176637, -0.10316215183471397, -0.14030798776054176, 0.10515267231644056, 0.34031307935171223, 0.15998927103762392, 0.49534725950650027, -0.014790468337789138, -0.06195496134662342, -0.07604544035936484, -0.13125008914943198, -0.14695130787377894, -0.1684257761805419], [-0.4418427283024806, -0.11766467158666359, 0.2895759662331043, -0.06682027191861194, -0.10001862959722863, 0.44851812889332654, -0.3119199179877103, 0.21714208679839705, 0.06429472660666596, -0.23525872792403935, -0.2384443287173633, 0.2932013545321441, -0.519231546801589], [-0.22468111521380696, 0.03187982740468611, 0.49941639019433665, 0.18303623661439652, -0.22289832935002413, 0.4960809306037176, -0.3764781864491682, 0.26354995912315954, 0.02986137173572966, -0.03030929861512618, 0.3582753615923782, 0.2380564377542499, 0.18216142569012303], [-0.0832683468207034, 0.08319327640204899, -0.2094792049511369, -0.5333318968268722, -0.3088850316617689, -0.28650281448574466, 0.17944571947635862, 0.10217097815618728, 0.5256635448162998, -0.05416471476508998, 0.06164226932768306, 0.08464083649312656, -0.03776446783604281], [-0.160572534965752, 0.09472786741910912, 0.10555992297986687, 0.21368485653512415, -0.4419831080592405, -0.4706494928885158, 0.09585314334750043, -0.1080568903751454, -0.08599765933902283, 0.5085447762479971, 0.1032240420311097, -0.459634121201684, 0.23054796209879588], [0.02634860874028348, -0.07548960349818772, -0.06834278152551872, 0.1417181452326732, 0.28465641701329364, -0.4966577833830863, -0.2550703262876515, -0.23960290511780577, -0.2895093915943894, 0.07361275989513585, -0.19443865004702823, 0.4108117869421932, -0.17837410858805], [-0.4709587154610736, -0.4487772437538021, -0.0021546058922285137, -0.06609393954174658, -0.3391917843414768, -0.40585873368692443, 0.13614473951953052, 0.14252205764830098, -0.07838640379655792, 0.1653961015153738, -0.3122591567004711, -0.5593297691114674, 0.7018202640712106], [-0.033179962220561285, 0.01113255595853892, 0.3274985196834449, -0.32274607360374513, -0.2460943381448336, -0.12399915201527516, 0.3817774332358225, -0.09524027538198694, 0.05334655594166585, 0.23042014990638873, -0.04006746211441774, 0.04689146909041668, -0.7677569599280657], [0.4946153866670579, -0.009961862171966835, -0.3927703215858268, 0.1973123993394541, -0.18805022298405893, 0.08371532219018457, -0.28504327681251546, 0.2775484862063237, -0.48387545947438226, -0.1276127569704526, 0.03417949067996467, -0.013457308728738614, -0.03328319910707454], [-0.004142763748052735, 0.4381670238398495, 0.08603396904810966, -0.51765336339834, 0.2211604524604966, 0.4049593314466847, 0.2314014896472514, 0.13050318627238855, -0.01776954815762449, -0.016765125233313027, 0.3128302438654707, 0.0589158681458274, 0.11663300239189255], [0.2072867052112999, 0.03233152926145662, -0.3007877417660811, 0.028826563599488937, 0.044942552706693624, 0.39229251021277645, 0.10124100957096381, 0.15866152998260116, -0.11814547226754035, -0.06330644873818221, -0.21335165059107955, 0.02160071026947716, -0.9180013250072179], [-0.17448608742641936, 0.40394717473065356, 0.08573406861629627, 0.42593460082526874, -0.0034238395890212243, 0.062058156619290546, 0.12393951223587026, 0.3583081979755677, 0.14601686884829693, 0.690959389019212, -0.49702346899210575, 0.5623498005650187, -0.7683913536788761], [-0.1405857397579499, -0.17608819239138288, -0.1384500701508558, 0.41488131381803195, -0.2540383129974266, -0.008157560507243386, -0.3510361964116383, -0.3929885574810112, -0.18969388072624477, 0.3465384196929383, 0.2742480376219055, -0.17713440751382603, 0.05453772480978245], [-0.13813990250002273, -0.42806077495973244, -0.11911808191212536, -0.5203454856594637, 0.41514303340779446, -0.1476559934201308, 0.18319586682913078, 0.47721393134662177, 0.3695547554856786, -0.13931672435139952, -0.03981816903672473, 0.5589552926065288, 0.2930043624076927], [-0.09307162322980536, 0.3112981077753582, -0.5867171552105128, 0.3050387428161087, 0.3350735698529901, 0.12057445714926511, -0.24090375235311515, 0.1396612119642996, -0.16462741508874673, -0.6221171972576599, -0.158062914544782, -0.03242267548663943, 0.06900274808501682], [0.427118552386087, -0.05836638122520871, -0.06618889364365195, 0.46116937609663594, -0.32121992359450613, -0.09908203706645527, 0.22017335919489256, 0.13891768290792952, -0.1662339914390643, 0.36968929544018336, -0.4083944790340067, -0.06162831623901198, 0.0219918478643854], [0.07659696035911981, 0.3482139772616027, -0.5547415976707329, 0.4824022041098984, -0.04906033827104888, -0.13346575323936405, -0.3168495229082239, 0.03327975340855213, -0.17373011173946956, 0.28511680009959367, -0.11701184993586329, 0.06467452640305006, -0.0787819463112709], [0.16207937557580457, 0.029984967576945076, -0.07257826309201108, 0.20356958658992957, -0.19498431590091966, -0.22388374402955075, 0.20869118400146372, -0.29703075527309925, -0.019065242693111623, -0.016806624146943595, -0.1665921021340975, 0.17632245362899843, -0.33907188716441056], [-0.2079862654209617, 0.45009051288310353, -0.39895214165022963, 0.1669287990520128, 0.23667113381833077, 0.10412232785836341, 0.23345131554134232, 0.5273594911169629, -0.1168245145077813, 0.05080833645953833, -0.0673267356903782, 0.43142262724067226, -0.7963916222891942], [-0.0911449408533037, -0.2778935308333541, 0.20051747345270765, 0.16968318165940313, -0.19452595745597404, 0.3530149406993991, -0.14066904056199797, 0.09870646802871068, 0.32153961745589515, 0.16454895606546552, -0.14824210196155743, -0.07148064936670591, 0.42149443584401813], [-0.3690033889067568, -0.07173759920244784, -0.08966979451263914, 0.2482646384075534, 0.28828775003343665, 0.019356993775644184, 0.14400247297194732, -0.6044963791443392, 0.07818783502113243, -0.2284208523480499, 0.3395254945848274, -0.3564879715879412, -0.22592977048362745], [-0.34773126608930305, -0.019646800984838567, 0.3229619792081679, 0.1841660356068697, 0.2019875404370372, -0.41851854416673806, -0.5395700746485422, -0.2721823459799416, -0.30779531999828996, 0.19170037112916996, 0.17950404967967146, 0.6172833568632162, -1.0636797297120413], [0.16089888292059243, -0.31650181104307445, -0.39341250447298975, 0.34347804467821497, 0.2717359750178165, 0.28509774001964117, -0.1119990039805214, -0.2630023531507942, -0.2978757136180458, 0.3799766628358129, 0.06505960443166929, 0.7038878307444878, -0.2636710773100928], [-0.24116693546182388, 0.1723932434658341, -0.6025900107809723, 0.3814072123440273, 0.5226815064681011, 0.18100410172589182, 0.6081788002373706, 0.032273767474091594, -0.24177959918892428, -0.5100655940745845, 0.013000743176224941, 0.2697666646658644, -0.7014642252560598], [-0.49828764232332945, -0.19817792180455704, 0.09964035176377482, 0.4029438259101678, -0.39581736057265876, -0.08806820134024172, -0.07134090972860749, 0.25217215574104257, 0.22910780881144305, 0.1811665731863758, 0.16908898272504583, 0.24989163301432027, 0.2681992774245544], [-0.0744793086666521, -0.1856732828135971, -0.5248836442858416, -0.13751384690507476, -0.024824692947889783, 0.03303446630485504, -0.38390494400626535, -0.022945539119085947, 0.20169809614278683, 0.41772860836113507, 0.2571533315159844, -0.1661587292486187, -0.273255543240456]], [[-0.07105069489873257, -0.010929514302053796, 0.045755671187422846, 0.03795418529727437, -0.07798086806205165, -0.023207613593447623, 0.35862627467393055, 0.3013706352456011, 0.2333980366942032, 0.10918815479415306, 0.08035443083935505, -0.14410624306275568, 0.09313823781961289, 0.1382612452965343, 0.33532322844384893, -0.0541898696270512, 0.32291852311439584, 0.02651822063678722, 0.41019443219318563, 0.143339346159779, -0.008578335273352937, 0.16345891048328806, 0.10006834677838487, -0.01050778075720578, -0.08857032994727623, 0.2790580599084848, -0.021139519664043198, 0.09320096015166476, 0.0034405334275386026, 0.1136716225101285, 0.21280001085719755, -0.19212319154944849, 0.1990886478700812, 0.2726702461397914, 0.08796282584458463, -0.33005518624426977, 0.11690929592335758, 0.277061292689372, 0.007643174846459485, 0.29254654240872197, -0.17684925651578554, 0.14930039174188056, 0.08826261183652341, 0.18907962002376485, 0.26332949211527873, -0.20080572904251323, 0.06935792053186542, 0.18491909789567781, 0.2525279609237474, -0.1426247858963035], [-0.16693402401391275, -0.1456191410043573, -0.26590021025446176, 0.11987925848171334, 0.129759478801612, -0.024714236439580137, -0.46368625003294317, -0.0890670877987952, 0.0035405837582356634, -0.09666774237169927, 0.027354058655326346, 0.08149566430509864, -0.09020981480680232, -0.17186884308489833, -0.33914568747242374, 0.0032528096651585404, 0.07887115613402158, -0.006628751531449561, 0.03602248689659202, -0.09878060571159632, -0.04741185415885417, -0.40732749029514287, 0.00898099056209212, -0.010554552502074209, -0.30021687699620186, -0.06633180061687215, -0.18259694987416036, 0.22572683252674883, -0.21086446994470026, 0.15109044119406678, -0.3977617800700971, 0.10231876894144933, 0.123961462275313, -0.20754125283453306, 0.07996956262266183, 0.007714442984561941, -0.039448453219411345, -0.1002780398523531, -0.24978297572189972, -0.26859431777770065, -0.19128723902781128, 0.1288068310940336, 0.06604447588751317, 0.013052786300999774, 0.00424940282243979, -0.04936031201192544, 0.050621875249705114, -0.14867814313551364, -0.31779262512098894, -0.1066048984648431], [-0.5497545140958954, -0.41068520370158856, -0.5999268183610211, 0.3196831641519745, 0.3003692987726577, -0.5681285714411366, 1.0180597997225245, 0.6677195369781991, 0.13150779596325415, 0.17296373669707332, 0.06719066254370841, -0.5835747585527693, 0.6117389743417354, -0.25294947969502346, -0.057225650948137544, -1.326980252834362, -0.18215534987624005, 0.042294122363376006, -0.11925560168016026, 0.6779271184294839, -1.0893207985521856, -0.7602376763474785, -0.29736216491908984, -0.24085079345437807, -0.021161431335005587, -0.4143522318356635, 0.2904659054263358, 0.1756967630037334, 0.21387975356689704, -0.31193282298576336, 0.7439267274758344, -0.06630170617610194, -0.1631062029244131, 0.3164525560071568, -0.8097785099176168, -0.9850834877976309, -0.10114043979822251, 0.30127563195292, -0.051002718480814356, -0.16409761451614308, -0.4686290790100702, -0.33530407090143755, -0.7501753242892527, 0.4085169743021939, -0.19615856392694436, -1.164586701128392, -0.5284358218523066, -0.46626705134532, 0.1351468140924919, -0.23754523904434952]]], "biases": [[[0.5047604648876798], [0.38018019737434805], [-0.865560350739635], [0.3152540232782924], [3.80044252016823], [-1.1790148694807572], [-0.0014152906734404976], [0.07873706428188451], [0.7670185289203003], [-2.710679498257961], [-1.6029507593099128], [0.09495009822582326], [-0.41945085097001317], [0.45461333352208094], [0.3722770974339468], [1.8993619135802218], [0.1789759873622856], [-0.9804083535496829], [1.5819545052517683], [-0.7341534989032533], [0.05917833850144196], [0.0023271442404900755], [-1.229496329160171], [-0.6154513935598339], [0.5398412904659583], [1.0670315032112434], [0.47451891136548424], [-0.1648139126371648], [0.9292191241820907], [-0.14142513920685887], [0.6275888201364519], [-1.9691629463186515], [-0.15312061105590813], [0.30204894796994525], [0.06583924018197412], [-0.13220082378237566], [-0.21056398002633328], [0.2552598760788307], [-1.38763490113666], [0.6962964487691033], [-1.0840594590841606], [-0.3990713653537393], [-0.9175345920793834], [-1.279126611993857], [-0.053570709404011756], [0.5349539856720421], [-1.2376363747031356], [0.18676999433678487], [0.2526424048702717], [-1.1121214681606595]], [[-0.4154475962281178], [-0.2670075798279918], [2.090640314909868]]], "trainCost": [0.47397545036635974, 0.05259017993317969, 0.05102133988960886, 0.04947064642059615, 0.04821437867824705, 0.04957284528181095, 0.04576427780393115, 0.04515169240268457, 0.043651470961946236, 0.04229107107986496, 0.042640910807120735, 0.04408958021150032, 0.03813140629683048, 0.037853012317452715, 0.03596196090743971, 0.034443668474825696, 0.03323330967566852, 0.03230988994804273, 0.03124055655368552, 0.030283878660174537, 0.03105133055616012, 0.02844630580206661, 0.02773376042069544, 0.02767637133130734, 0.026706134033049226, 0.026064364412720274, 0.029624725641760587, 0.025674824225169184, 0.025089740662424854, 0.024844097397824248, 0.02441353612569555, 0.02435651735075371, 0.02405901787367905, 0.023864570211556843, 0.024053225576361588, 0.023706885255636502, 0.023669250106658827, 0.023430336819287887, 0.0234719409448562, 0.02330277680888817, 0.0234317741026933, 0.02343735359236611, 0.023290430321046447, 0.02325856478114221, 0.02373521174345561, 0.023095547046151767, 0.02297120168141456, 0.02298769657268316, 0.022872954674779584, 0.02281988291761876, 0.02279467452335878], "testCost": [0.4814925118248188, 0.05847818895567528, 0.05609509002510539, 0.054823229600689596, 0.05348461599794287, 0.053933357928134217, 0.050816457542784625, 0.05042279123292564, 0.048752355411622435, 0.04675662688189923, 0.04671215753488615, 0.04955235152398753, 0.042518707199362654, 0.0418183468199901, 0.040017827983828115, 0.03852058029218778, 0.03730077756887925, 0.0362281095264919, 0.03543694665229836, 0.03411993033514595, 0.03455519619650273, 0.03244697195097322, 0.0315445507130082, 0.03130271883571794, 0.030697058348141022, 0.02998704701610098, 0.03287370225998732, 0.029730047609615857, 0.028837403741180097, 0.02857764966529403, 0.02826913752785511, 0.028157890790626333, 0.027907387388794308, 0.02772271777142998, 0.02806626500857266, 0.027683317826226607, 0.027696323434483878, 0.0272990831035129, 0.027336402756408997, 0.02729817279374386, 0.027455040811960513, 0.02748482309899175, 0.027320896367040968, 0.027140034009002067, 0.027834612107000833, 0.0270036556117894, 0.02696042843968652, 0.027028475089165182, 0.02685603999061838, 0.02680530884424741, 0.026803119454077456], "trainDelta": [[[-0.7394611953919774], [0.38733962650302695], [0.3821000312279655]], [[-0.011302133833468727], [0.008945951306227395], [-0.033135414248057354]], [[-0.0004624198272024846], [0.00016010976477044315], [0.026674894536519594]], [[0.0018978308335409603], [-0.002087809965693423], [-0.00970863471279512]], [[-0.003920326921670191], [-0.0026721498138384233], [-0.005490733257468042]], [[0.0018967955273713195], [-0.0007546501247802092], [0.07116629142155377]], [[0.0006114805430023727], [0.0011149831055935907], [-0.00430287952068479]], [[0.00016325084248736198], [0.0008899927324707667], [-0.03440822192932061]], [[-0.0002225813732034195], [0.0015365220632728746], [-0.02656913558492093]], [[0.004493583212497473], [-0.0003524215646504413], [0.02432984234355114]], [[-0.0003494992297231951], [-0.0022514039519774803], [0.06096323688929537]], [[0.00015478591489830453], [0.0004577325815197771], [-0.09134140708084836]], [[0.002396316307604532], [-0.00040797151312912966], [0.008363367255790038]], [[0.004303222087852359], [-0.003634975095981538], [0.04422097054816901]], [[0.0016977280797705484], [-0.0039018611136637797], [0.0280836116381944]], [[0.0030635953941736136], [-0.0023360233248922954], [0.01667142466266226]], [[-0.00017082430115243622], [0.00019662851452255741], [0.013611462183179305]], [[0.0006413888641713103], [-0.0011675867501090436], [0.02362187360984899]], [[0.002279093339623758], [-0.0001485288469609253], [-0.01857699098813812]], [[0.0013857903100295752], [-0.002027366847323245], [0.021206254828926647]], [[0.0006745251805123806], [-0.0014068517368895507], [0.059284501354064593]], [[-0.00041627114359320006], [-0.001991032643408336], [-0.008278729549786732]], [[0.0018389062156155302], [-0.001718890853933899], [0.011801571586462565]], [[0.0027427909229135166], [-0.0024066133390044527], [0.03411364283919592]], [[-0.00022638511579648864], [-0.001446884889804561], [-0.017764101771669864]], [[-0.0012642026723391733], [0.0018016619531455987], [-0.00737491064751833]], [[0.0004423821292487963], [9.826488262647591e-05], [0.08559883441048284]], [[-0.006125863560940474], [0.004729896934160562], [-0.026264032461134238]], [[0.00028394913030456724], [-0.0008482214595489496], [0.01711550373675757]], [[0.0013262178712432505], [-0.0015013183212845488], [0.018598352594419436]], [[-0.0009111899687067847], [0.0007703295387360273], [0.0012760948089011821]], [[-0.004013747430795805], [0.0002456560238947451], [0.0163552418709087]], [[-0.0031348793251791693], [-1.589391215952877e-05], [0.008017638833901886]], [[0.0019579874265139505], [-0.0009424384770042656], [-0.0005648442415560615]], [[-0.003202325219689432], [-0.0009952485222889306], [-0.025541641492594174]], [[-0.0029237079728875494], [0.002174474076118096], [-0.015260552157828376]], [[-0.007953324561551975], [-0.00047358135736170175], [-0.018147687435666447]], [[-0.00012579325149773154], [-0.0011918311534229002], [0.0070549176831876115]], [[-0.004023294284789621], [-0.000945862076554261], [0.01570594690735712]], [[-0.004903434738632837], [-0.0005993981114448179], [-0.011767624985186546]], [[-0.0026109544471415625], [0.0010123900029115934], [-0.023253634043764283]], [[-0.004035550214720041], [0.0028135999881658503], [-0.02591161032725342]], [[-0.002591679608652521], [0.0021011001489329544], [-0.022259284301456045]], [[-0.0026865906678079482], [0.0009428561805097568], [0.020040817016695498]], [[-0.005210946900646777], [0.0024270070284102678], [-0.03906617539045671]], [[-0.001720020758092966], [-0.0004305783539724968], [0.015431784461707605]], [[0.0017254317576043097], [0.0004177777735798937], [-0.012300464140597782]], [[-0.0029102549330992404], [0.0033906086557829295], [-0.016125980286351902]], [[0.0023808371227877763], [0.002713762580067354], [-0.007466979913147093]], [[-0.0002591599298038269], [0.0017977783311015365], [-0.0004979821537111769]], [[-0.0032020530634403184], [0.0008910101348976302], [0.0008712531154937422]]], "testDelta": [[[-0.7470182539616103], [0.3884264121459595], [0.3712560294153088]], [[-0.018926196237920787], [0.009936213535547], [-0.04371433189794006]], [[-0.008085678341396783], [0.001148102960055015], [0.016155043714051392]], [[-0.005726714443489364], [-0.001096657042031479], [-0.02015106447185031]], [[-0.011548773530452824], [-0.001676076042988402], [-0.015855147028296424]], [[-0.005731949125463317], [0.0002485741458111234], [0.060828900557872254]], [[-0.007019263197288232], [0.0021255019345403055], [-0.014503853347873635]], [[-0.007469174769785984], [0.0019054056470775545], [-0.04449800676823413]], [[-0.007856495047691947], [0.0025575839674406246], [-0.03656060900990448]], [[-0.003140108805149238], [0.0006711532066936538], [0.014388156493890369]], [[-0.007985783171380734], [-0.0012254548442724397], [0.05107183814752523]], [[-0.007481139661408925], [0.0014910357411044414], [-0.10088450322588324]], [[-0.005239780571301069], [0.0006285281544435863], [-0.0011681522920119216]], [[-0.0033324086479452736], [-0.0025991219809865618], [0.03473210437893222]], [[-0.005938016552306332], [-0.0028632169994956993], [0.018784883092833052]], [[-0.004570844283548893], [-0.001292419909914584], [0.007567007755826153]], [[-0.007804582651818114], [0.0012460772025521653], [0.004678343993392714]], [[-0.006990281068540421], [-0.00011818318970210705], [0.014801367113304813]], [[-0.005349504511504866], [0.0009034705858876641], [-0.02702113892823561]], [[-0.006240295491667951], [-0.0009771880409315244], [0.012704260771810635]], [[-0.00694863354042604], [-0.0003553865932767169], [0.050654835712085]], [[-0.008034977060162245], [-0.0009407292865296581], [-0.016265328427247223]], [[-0.005775810643084721], [-0.000668775533923425], [0.003820739163307251]], [[-0.0048676655235283485], [-0.0013584424130951233], [0.026071318042653665]], [[-0.007831231634926711], [-0.00039892440921902557], [-0.02519089524665795]], [[-0.008863775179563724], [0.00285218286997346], [-0.014746437467774896]], [[-0.00715323924550145], [0.0011446371586616376], [0.07729434421106887]], [[-0.013712479677165004], [0.005779299273016951], [-0.03316987629807976]], [[-0.00729903492042551], [0.00019170623521964285], [0.009846088069410978]], [[-0.0062512458851428435], [-0.00046498469503827595], [0.01141492612495506]], [[-0.008481458827448942], [0.0018062905253415024], [-0.0055824599446123065]], [[-0.01157631078409822], [0.0012778797095536032], [0.009396033619430024]], [[-0.010691156430169026], [0.001012745302202646], [0.0012675989974488624]], [[-0.00559482831371993], [8.173637316792456e-05], [-0.007106958357343212]], [[-0.010744787651551938], [2.5315164137340324e-05], [-0.03163605970189894]], [[-0.010459881492515661], [0.0031946302129433183], [-0.02140690366267973]], [[-0.015478622006721886], [0.00054031772177631], [-0.02416852404914891]], [[-0.007651599879233535], [-0.0001821702670121383], [0.0007193159351307328]], [[-0.0115391839049986], [6.0448811300643e-05], [0.009287721006455316]], [[-0.012410999613474125], [0.0004033945784250844], [-0.017667916468297924]], [[-0.010114094489600267], [0.0020126843345212204], [-0.02891104390414543]], [[-0.011530489786699193], [0.003811444505464659], [-0.03145801761192001]], [[-0.01008188648334499], [0.0030946141006450182], [-0.027800519247731678]], [[-0.010171199246352227], [0.001932046606822816], [0.013819866875078081]], [[-0.012684310242918244], [0.0034130191545725824], [-0.04423667663378941]], [[-0.0091932983409053], [0.0005503899853766404], [0.00937343587918104]], [[-0.005745803572720932], [0.0013953917029544472], [-0.017812803863526325]], [[-0.010368601913027384], [0.004366269664853377], [-0.021529436254302214]], [[-0.005079813428946595], [0.003685523356838877], [-0.012981654131044035]], [[-0.007710082232743715], [0.002765579709397989], [-0.006099978524011006]], [[-0.010642244548688265], [0.0018548882900298188], [-0.004714989370522645]]]}