{"sizes": [10, 50, 3], "cost": "meanSquareError", "weights": [[[0.03139182274726393, -0.027965576593624072, -0.12049508206467108, 0.15689844362998748, -0.5622940977680876, 0.2278709286175346, -0.10557202195619739, -0.8521113551236457, 0.0013168729300858475, -0.12298151515464499], [0.6061582706534806, 0.1532162537857465, 0.6319926069987389, 0.2853528733526137, -0.21738807078447273, -0.01677957241699222, 0.4349517618000854, -0.6406648669234872, -0.1131283313091132, 0.6772528619244643], [-0.5245296947782112, -0.5117855806458207, 0.05112912883550184, 0.03243578151046325, 0.42198972914546934, -0.0036056785793789747, 0.23086081490599597, 0.004786919906694623, -0.02427737832962684, -0.45645097188926165], [-0.13999526004669527, 0.09525793253404531, 0.5132568855714325, -0.24902886726376935, 0.09067019569540237, -0.0893805445092824, 0.26239413879928875, 0.3761398043216349, -0.09595112603151378, -0.03187356463339433], [0.08593975574154443, -0.30221366826588486, 0.16860007824106477, 0.1712869717649265, -0.0471873572326587, -0.012862739860893029, 0.3368373842131403, -0.057295160087906326, -0.4073852010827271, -0.42833611725719617], [0.23451835798837994, -0.1025203651293416, -0.05839232346879112, -0.03917728678118523, -0.44404214131575903, 0.39716332778838115, -0.9911542932334035, 0.20098403836644468, -0.17769780902956284, 0.2901376109954754], [0.27276578542591273, -0.4821190273816354, 0.03167340553365075, -0.3111857993287456, -0.013415030098691307, -0.323656360633162, 0.4520514116516369, 0.524006360982114, -0.16341193257938164, 0.31148213786350887], [-0.21192665750087397, -0.023720221168335453, 0.4257241342987356, -0.49201310624676425, 0.35368356338966045, 0.522871725044216, 0.41336806935016157, 0.04752147469997598, 0.11766244802443267, -0.2064917459310135], [-0.6976853305550768, -0.08424184273709036, -0.2619521203975485, -0.20507321580955057, -0.07438798030939549, -0.22148790130807397, 0.1253480603577543, 0.03262386734833313, 0.5194618620235223, -0.2289521150071379], [0.1863089514391455, 0.15857336045273893, -0.15531613817930304, 0.2962404883522175, 0.3645301471571379, -0.2434927108173572, -0.23098906502831315, -0.47993074402966057, 0.05886428751012498, 0.26825553686736847], [0.3424749225352431, 0.1485701892779156, -0.603772625316331, 0.5600529740487745, -0.04724781736994473, -0.4580829975680298, -0.6981932457219061, 0.5031100220939808, -0.06647551519152309, 0.33714956036129773], [0.06994214967302731, -0.8379726157492328, -0.09838488323479744, -0.2604761258660501, -0.5877108304055246, -0.31336037874824735, 0.16869985404406757, -0.30185219781446104, -0.5411889984062102, 0.022784174397844175], [0.7428626261956146, -0.25777612170189534, 0.016123768289141967, 0.49760672333881245, 0.39715043108526615, 0.44872266277290584, -0.09355201203511329, -0.3732445837359618, 0.275120759991093, 0.03077085583850632], [0.3226088710948229, -0.5647875300023707, -0.11810406733782307, -0.06431940273848544, 0.7174030497475746, -0.441707357642424, -0.1192477870564228, -0.286983742473235, 0.07201469391477949, -0.36575220053260027], [0.14500103575434506, 0.00861745119393914, 0.5258366220712786, -0.4969780550154221, -0.00397571283277253, -0.5499275209605443, 0.35084342090005005, -0.06107023648807594, -0.030772536829226517, -0.07022042778720076], [-0.30152743050722636, 0.3304435520548562, 0.01624175616530963, -0.02625361591509055, -0.15403638329772504, -0.24565928143529212, 0.3855940094138105, 0.08964483968975562, 0.4525563684646353, -0.058119244397754455], [0.4335167802057207, 0.15692110382586835, 0.07403521144733924, -0.29097567822290954, -0.3765887901867601, -0.21734903973183434, 0.17856847238293472, 0.935993600607434, -0.26226289382522044, -0.07959453180942173], [0.407228169175277, 0.12641666227379755, -0.013185061072951544, -0.002403208093128671, -0.3888893978658709, 0.132836537041568, 0.08937017874316805, -0.3257866362494563, 0.24680332419153223, -0.2737213842449055], [-0.512848889120398, -0.3928673858959967, -0.40379560476447973, 0.5741869479821828, -0.2877186118971171, -0.09389134457468033, -0.40247397056078, -0.012679698574979801, 0.05186627727263834, -0.07137440504082362], [0.11996202281272601, 0.25578185111641366, 0.169169165606986, -0.44574819863186277, 0.14732327956223917, -0.15315217630720881, 0.35136028523380153, -0.0977775130502676, -0.1342453816028994, 0.5759564383060195], [0.2842039309100277, -0.7363552082032072, 0.17288428529462022, -0.29279272260133277, -0.11702458207607001, 0.05586480096966855, -0.3151210953416, -0.17095540595314876, 0.3197551145531253, -0.5702822487830104], [-0.5001440144642865, 0.45840169102498135, -0.16472868359343948, 0.3362989502737583, 0.15265234016719156, -0.081432933136572, 0.2127950089865381, 0.22317613983433754, -0.2980450433621989, -0.2575379129956711], [0.3325555170794204, -0.1791154325179156, -0.18155422938074323, 0.26704447966521794, -0.32682856767319096, -0.40179300534298545, -0.1774616997574273, -0.5559830164416576, -0.024543990348313026, 0.14325918374236646], [0.09732626571442458, 0.1339130406712556, 0.3519981882347223, -0.3478194204750711, 0.04214900414844552, -0.08192753362262035, -0.6191762869730691, 0.12053333536212883, -0.4310470420696081, -0.328140370539043], [0.11230594264768813, -0.13640707525341877, 0.13671169662711083, -0.22105933914047624, -0.21358123478922394, -0.17992054955836087, -0.4262100101113867, 0.584629704769363, -0.01080747147753611, 0.4964604947862564], [0.15136768303761247, -0.48342034788236804, 0.2615528467752509, 0.4716156441154533, -0.09806810009561479, -0.0721495038166417, 0.10226368678717997, -0.4797352156739029, 0.08735724345612778, -0.04269897536195021], [-0.9126537268859121, -0.2156502680973261, 0.1808570257212966, 0.02145177026690083, 0.2671807175978527, 0.9589970723848661, -0.3270237589140438, 0.6176676542126053, 0.18868095471120588, 0.35795393806924863], [0.2057593968611891, 0.32365175559352116, 0.25401682547972254, 0.8994456954688845, 0.27330836087523763, 0.48145568180496007, -0.548563860802863, -0.3399411086736077, 0.30048701463885447, 0.29682947175886204], [-0.4770917026530313, 0.3917671889218729, 0.1086883886903475, -0.644507973923759, -0.21324642171248887, 0.37877740224595025, 0.4683698246603263, 0.7202921865979288, -0.029289102051768684, 0.15605313326067058], [0.5282673358792815, 0.09810735737994639, -0.12054418619215036, -0.6800444923049542, 0.25934771389382977, 0.06270971254146243, -0.01600060398953104, -0.3089844075208169, -0.17072983823727556, 0.04518280952353586], [-0.16206728232965165, 0.24689164415562648, 0.5623571931773893, -1.0720504773788648, 0.07042947263657318, -0.3438341262356723, -0.26758859162158677, -0.5526509410047632, -0.10133983454774327, 0.0016051733502826628], [-0.34241280803176727, 0.0947172087944874, 0.19651685643361907, -0.5828795573143034, -0.06613060609702114, 0.03069333379117367, 0.5356996240793667, 0.2714179734427429, -0.3690376870512173, -0.7783832226456566], [0.22588831473217155, -0.7674662526124294, 0.2565669738685564, -0.33980187033834885, -0.24166678258875354, -0.13944300333099155, 0.04255547433716572, -0.22566154359186585, -0.5316473224678979, 0.2535452447204402], [-0.3189425037766887, 0.37689032023046126, -0.1052004867931956, 0.1606779048526461, -0.02879117894043977, -0.03233517327770198, 0.2571702850363047, -0.15617047416977126, -0.5655579872616464, -0.27766447302494035], [-0.18221909931931374, 0.04208307303499327, 0.24223331036460632, 0.03189727783846471, 0.0515112557233076, -0.16893558327657804, -0.3015887736226348, -0.27851378285535816, 0.4415065771716908, -0.09784218239383968], [0.14064267765123475, 0.47232879559151986, -0.07939098212346493, 0.37419497678545094, -0.6634164088671021, -0.10157949528948662, -0.4129004298401346, -0.6301037024017995, -0.33463748771538393, -0.13167813293498523], [-0.09635043594392712, 0.09552191612273869, 0.5243263387794783, 0.0866125406393383, -0.06792867173412011, -0.23593155432042667, 0.24849953883231915, 0.08110363792582657, -0.16830652811575977, -0.06389405661761939], [0.21413357637722655, 0.038782045681871546, -0.0785413639676861, -0.17187649931819873, -0.3534732392182795, 0.037165298421360266, -0.01616543350069738, -0.6909722722127992, -0.45331161022032657, -0.0829313163688026], [0.24542327723686672, 0.6524895545400885, -0.16575970048268285, 0.31860481601978624, -0.3316976404657467, 0.19443153192081927, -0.6469464634515867, 0.10200517726703186, 0.5140449222294401, -0.09443872463643299], [-0.5551119489220842, 0.4990462604229441, 0.4564549817941119, -0.06349006466369304, 0.07614338831179747, 0.22502548148264626, 0.6929655540862333, -0.22307108196311443, 0.015225093593659842, 0.31496528414867897], [0.41986422058816814, -0.42154219429765205, -0.1954514711609826, -0.5223098235527004, 0.01650529988270891, 0.45503413722290637, 0.16771228262796634, 0.5801329335197145, -0.15214201780630812, -0.4094636807190846], [-0.4246732069451566, 0.23096611146954535, -0.6227778954335886, 0.3971922499558449, 0.1476439385373948, -0.10352668219282025, -0.10418598241650293, -0.14021753777037704, -0.41501321535309194, 0.1593579245150553], [0.537882672574529, -0.4821985255904277, 0.37340736538835856, -0.19328061096061874, 0.3440868916197576, -0.09364501395302503, 0.06592960542511545, -0.04502777926494642, -0.2452776978560094, -0.0011536405031345191], [-0.2973754528037359, 0.2926552865417823, -0.1673843148776327, 0.19770946532544784, 0.0787338058110871, 0.006261945373416442, -0.430297595603198, 0.011521259040980919, -0.1448160763908478, 0.14016492323983892], [-0.09801980847686964, -0.2799004371415357, -0.5233364325695217, 0.28229610298553126, -0.1981528181718956, 0.30601379503627374, 0.41602859671790027, 0.14941768159925622, -0.4045011939066113, 0.1711261929837187], [0.09651955648320082, -0.16052382989502312, -0.16379000008701974, 0.18240461851334508, -0.050529013611082106, 0.09694277348083694, 0.47305297088297693, 0.15804671042866425, 0.13775172384777498, -0.3845729962530722], [-0.707992063830062, 0.27820540747901257, -0.3173712204643171, 0.6296971697448154, 0.46762955352327534, -0.061649287212718874, -0.22746602699468663, 0.08574537134248958, 0.13369239076202769, -0.02457661342715255], [-0.027044556433102846, -0.10924569646625386, -0.07961396240044388, -0.18664033316352627, 0.2867171691142449, -0.09225557828330556, -0.06744989444758552, -0.14117301224899104, 0.20696680265493322, -0.1267569146781683], [0.45710373085932887, -0.5588397132445602, -0.13564205237067511, -0.202772424179767, -0.1083076984948562, -0.20725166716120352, -0.10981444339562722, 0.4740019324145811, 0.2863561080164034, 0.04637006391699245], [0.005910114946280958, 0.22721195305160113, 0.10897361441715063, -0.572954406191231, 0.02733804072290712, -0.03507862809679241, -0.7761801064525847, -0.41910711771925674, -0.08563029788549721, 0.5410711497017257]], [[0.07794120235521146, 0.008823511866488786, 0.06820611432166318, 0.1861484718704337, -0.16175464665164377, -0.11884422747769881, 0.20839660236972934, 0.1337681834976971, 0.1336059964787345, 0.21588331260320287, -0.002238794503982398, -0.04117989280506332, 0.17397952868623648, -0.015454597065663423, 0.3076954189079049, 0.10406804221246205, 0.1600090269871777, 0.32678781836445686, 0.2677616766580066, 0.2622837234865055, 0.16577677321015877, 0.21947209032368944, 0.09039923787595555, -0.13972792368945283, 0.07808895885054211, 0.16696199089754332, 0.09648568432193765, 0.25221749560139584, 0.23407604553606504, 0.32819384511587235, 0.15775631298705722, 0.18714085502679895, -0.31577136528601296, 0.232724252459638, 0.3418680279029259, -0.03619338702969822, 0.08167422466087618, 0.08888892322055075, 0.04111276944585742, -0.006224614372041208, 0.028856288217991268, 0.06542051644230902, 0.2574832265167265, 0.24037549702374358, 0.17562045230422707, 0.07869686583240858, -0.06491923629052904, 0.040191203305499947, 0.020793082114186498, 0.2348498215509727], [-0.12085862169464362, 0.17196230384628725, -0.30575322065344873, 0.0817806423809414, 0.16553494331417423, -0.01902945513188542, -0.2338859292644023, -0.08241532625459547, 0.10119544574547115, -0.18847067020313565, 0.2979145505095704, -0.13449791790872484, -0.06349683556720241, -0.0577577165391691, -0.07168529537109102, -0.3040893478507349, 0.05366566307809899, 0.06572660937343322, -0.20759829520159895, -0.14303339433886986, -0.22690966307283872, -0.25002166227125894, 0.2202575443995866, -0.03820572016569344, -0.14215341212219512, -0.14626323122088197, 0.16410776358896323, -0.0427586628142371, -0.1211315204201559, -0.1312627995996065, -0.004508767149749372, 0.002778078228641745, -0.3019276968377873, 0.06574482153658666, 0.190709842536365, -0.27227250727353625, -0.09345642111364887, -0.0643888290231796, 0.06952472284203769, -0.0994768480359714, -0.10551808707422884, 0.14095876782574338, 0.10577845742947165, -0.19844916404936394, 0.13724673932721307, -0.3070281805426901, -0.10310949182409188, 0.15509891209755047, -0.5398941751655383, 0.1593515805925781], [-0.3117983832742796, -0.5761383878248362, 0.41414133176769774, 0.4053124553294197, 0.22620488992627863, -0.5178807160083679, 0.09621833383553202, 0.40463564436576127, 0.19294221490815588, -0.5968116011262773, -0.5827138137143503, 0.3336243608132974, -0.5481820655853329, 0.0776159028640678, -0.0067551331108335645, 0.2398369257959561, 0.13108111379578444, 0.030682898959899924, -0.21321861982403723, -0.09655650619996536, 0.22157716005933425, -0.09350570262534144, -0.4332940283065198, 0.07837348958414668, -0.3568626584481508, -0.11462918022607954, 0.090493257886723, -0.8079022417626662, 0.42857687710995956, 0.07859264762118232, -0.008865307422976776, 0.8247580016261835, 0.2791720334157749, 0.14875395131288593, -0.057894789491279894, -0.5272341951575406, 0.005149771234766402, -0.08724299291590662, -0.5849589468228698, 0.10623624711786996, 0.5246130669934204, -0.24118102077536882, -0.09473688186483717, -0.45197577168332304, 0.09162804379230158, 0.28624877038054647, -0.11704183468118812, 0.1543959799981451, 0.005982616948983692, -0.5296018024454284]]], "biases": [[[0.17882396826677752], [0.3080431426694726], [0.3795295085219215], [-0.752174012851049], [1.1038552207135646], [0.5671168815883], [0.6640320932639046], [0.08020667518631297], [-1.5062084433621787], [0.15819542805194442], [-0.9114996283916077], [0.8183386578800924], [-0.4812837109385119], [-0.5711558680988524], [1.9856335959481881], [0.45153123924319427], [0.07743522566464667], [0.7357586110530875], [2.2911622660692372], [0.45958448769652577], [0.7837297771186466], [0.8451891880573027], [-0.4974237028555554], [-1.1253705977693724], [0.8832366222266382], [0.4087921909580996], [-1.5621214703360229], [0.14247147060172655], [0.3650898472434172], [1.0122478180294767], [-1.519645923774794], [0.3216595062837871], [-0.017832478651317395], [-0.7775455658372314], [0.9220486265796283], [-1.0498799025962795], [1.4378866114273627], [0.16954458290641033], [-1.057262030459388], [0.3071806030721945], [0.361235283738136], [-0.20830378377979078], [0.34004196972158524], [-0.3625898211896302], [0.8380659543663546], [-0.5003276161026834], [0.6368339978569532], [0.7351956017123236], [-1.0210364103580185], [0.5337148273134871]], [[-1.0742383554155546], [-0.8923928285376913], [1.0239902557375926]]], "trainCost": [0.3488956281682579, 0.05205841916564868, 0.05106355951926091, 0.053282396644672894, 0.05076368674820533, 0.050584754123495834, 0.05264553706533752, 0.05095267750354789, 0.051249276878689805, 0.05531811624667231, 0.04991402469404786, 0.049709362123545306, 0.04954523310521164, 0.05051665444472456, 0.049380174944848164, 0.051717338536178804, 0.04915309453905874, 0.05271554521278248, 0.053252910309697005, 0.049930545244038706, 0.04834612687123578, 0.049296321190189424, 0.048984541888174346, 0.047838919824688596, 0.04931256928081884, 0.049296620809826365, 0.04883743189499319, 0.049072826849779254, 0.047053501231266885, 0.047921937664043485, 0.05034405888447529, 0.05145333030095631, 0.046508938457901966, 0.0480625052959876, 0.04625783430506158, 0.04601845608775818, 0.04689375477471396, 0.04585665307841618, 0.045791617623207194, 0.045483309154140554, 0.04618136953713475, 0.04572870083806873, 0.04742614653754309, 0.045978075250064476, 0.04571482187126159, 0.045076401519566434, 0.045722791096291356, 0.04446682493377892, 0.044759869130484374, 0.04461611080159859, 0.04418496132235605], "testCost": [0.35699825562265375, 0.057303382527525606, 0.05663249800056547, 0.058142703477139734, 0.05648084136914915, 0.05617641924369037, 0.0589393845819712, 0.05615030362049314, 0.056302633687290216, 0.059849886789097424, 0.055403769708607796, 0.05536586680906562, 0.05520381192741285, 0.056579933457003906, 0.05478469228893845, 0.056552212487706185, 0.05486915210209313, 0.05738735736715081, 0.05785116950055332, 0.05499342396298443, 0.05379000834012483, 0.05528831287372105, 0.054940140483842534, 0.053304143106131664, 0.055333622305306605, 0.05427007996919182, 0.05484597953939953, 0.05516093461811891, 0.052623402120197386, 0.05382649127639291, 0.05658350135892701, 0.056174607754761276, 0.051929716110984236, 0.053148137360845206, 0.051909563568218776, 0.05160683394988082, 0.05211963499533124, 0.051557695925587, 0.051171704793530004, 0.05093386356073673, 0.05201738137201226, 0.05110212515166971, 0.05254581096622528, 0.051903167800038716, 0.05101287424210766, 0.05046432436145742, 0.05164414421221362, 0.05000234949491912, 0.050154293079998157, 0.050032784721642305, 0.049693893895037054], "trainDelta": [[[-0.6956594719538765], [0.20077584699050352], [0.2661405949095559]], [[-0.009075373542999442], [0.0029358403017527928], [0.04068239428109989]], [[-4.579431996183716e-05], [0.0024600953808429837], [0.005075918361641541]], [[0.000617023359519014], [0.0017927965926038305], [0.06947274060074443]], [[-0.004355999197022593], [0.0005688452478290161], [-0.006071191362015999]], [[0.00190731905362786], [-0.0035000770409931888], [0.00037133126056059537]], [[0.0029612719176810784], [0.0009706330451472284], [-0.0656629301227681]], [[0.0029205415214347006], [5.1813723290845586e-05], [0.03692871738595301]], [[0.007935573968735706], [-0.00012418826235493862], [0.04702329244476858]], [[-0.000137671013653245], [0.0008118222145277857], [0.10336118043012157]], [[-0.003207251285655664], [0.0019314162914452918], [0.012942938729084419]], [[0.001752762318878179], [-0.0005457028591747398], [-0.007354991408774091]], [[-0.0010692132577213628], [0.0005892651888839008], [-0.006294065569186855]], [[-0.0007441985767561616], [0.001711091792947793], [-0.046750786074939904]], [[-0.0017103247436807906], [0.003357092077329029], [0.018639283150237235]], [[0.0022291599377065024], [-3.858641683544754e-05], [0.07308841648618014]], [[0.006150584315132407], [-0.0016615382308595964], [-0.02011200334347109]], [[0.004884703534309705], [-0.0020770241618500956], [0.08888960784486132]], [[0.005938290787288606], [-0.002361272598243609], [0.09621486742781123]], [[-0.0029182506696801727], [-0.002122839919364083], [0.054797833750873826]], [[0.0008070080451356968], [-0.00020554546910035186], [0.011961770441243243]], [[0.0006311100125953196], [0.0018496882152169115], [-0.04666129656819843]], [[8.243046162186799e-05], [0.0030088837124194264], [-0.04327408392309543]], [[0.004490340823340846], [0.0018196652587003535], [0.006354163430635423]], [[0.0047150741089382825], [0.0003355050172526577], [-0.05540362325037306]], [[0.006553422137089834], [0.00034491985717017794], [0.06002360901522485]], [[0.0014485323086546344], [-0.0010411239122514965], [-0.05263319008263323]], [[-0.002382216533303771], [-0.003005602839793088], [-0.059097614179134256]], [[0.001096108012874289], [-0.00029974047024390106], [-0.004116783634515916]], [[0.0006258607278129017], [-0.002347200537052329], [-0.043466476822157124]], [[0.0010175366764446584], [-0.0012583356594051583], [-0.0823388261850313]], [[0.0036192311802832407], [-0.003098754568342301], [0.09845765662867034]], [[0.0007191338051237363], [0.0004239833695094174], [0.014268628991575246]], [[-0.00039170136349180084], [0.0020539459020215427], [0.060235289499126106]], [[0.0033613017926653276], [0.002206856494428409], [-0.014643178590532486]], [[0.003886479104062558], [0.00019267377341954234], [-0.008130130843041868]], [[-0.001796042873344223], [-0.0031336119087671073], [0.046894874147108606]], [[-0.0012944960675924221], [0.0011859058525691944], [-0.017249184318847113]], [[0.000900133018013424], [-0.00025568724609699895], [0.02420707526745051]], [[0.0010643459129725758], [-0.0021460311623374565], [0.015106649524352986]], [[0.003197437286721589], [0.000660148404904968], [-0.04057450612133623]], [[-0.004849511879554645], [0.0001706812450265116], [0.035840358093696296]], [[0.0004697124112032426], [0.0004404960340413947], [0.07040351197755479]], [[-0.0048520154010840725], [-0.000595480642209823], [-0.04468419352396533]], [[-0.0006490312883799972], [-0.00215571991176374], [0.045562005069876614]], [[-0.0004117183468398942], [-0.0001488858320937165], [0.03244704321794004]], [[-0.0029129742322990247], [0.0033839396277102925], [-0.047256444340417224]], [[-0.0036955208028550453], [0.003121822583012421], [0.01614999364159192]], [[0.002754551878883975], [-0.001210920011132823], [0.03350720368535322]], [[0.002777770511079394], [-0.001980074455280067], [0.03240901261674528]], [[0.0005403925023709896], [-0.0018913863924008112], [0.019840533769114516]]], "testDelta": [[[-0.703368501086415], [0.2012166111382623], [0.25517455219138363]], [[-0.016673380566426303], [0.0036320015494708717], [0.029763866628877755]], [[-0.00764130079752091], [0.003157597084882163], [-0.005769516989184104]], [[-0.006978840676777122], [0.0024918148002178236], [0.058722119902188424]], [[-0.01195464070496267], [0.0012704713061066097], [-0.016748715576738585]], [[-0.005689840878735696], [-0.0027906299988107027], [-0.010221349614866187]], [[-0.004636418944684795], [0.0016716668935889314], [-0.07619997355511278]], [[-0.004677475895919517], [0.0007542897592401638], [0.026506966647340598]], [[0.00033890673415620695], [0.0005783579992957369], [0.03668597768873519]], [[-0.007738031690850262], [0.0015122422654468269], [0.0931030349524554]], [[-0.010809734841590929], [0.002629239731221339], [0.002769521677265544]], [[-0.005848603386069438], [0.00015628111744131243], [-0.017446442002614655]], [[-0.008672314164395229], [0.0012883296253367869], [-0.016296629876595574]], [[-0.008347892755182948], [0.0024071621983446654], [-0.056691873143024825]], [[-0.00931471742989909], [0.004049031456049183], [0.008826905917785378]], [[-0.005373985885395611], [0.0006590133178386829], [0.06337224287951171]], [[-0.001451607347083396], [-0.0009618595240844232], [-0.02976291763137985]], [[-0.002718099189154091], [-0.001377684220286728], [0.07935810783884413]], [[-0.0016642962285959816], [-0.001662686816962498], [0.08677627380077624]], [[-0.010524894840281154], [-0.0014262025876512776], [0.04547124824094645]], [[-0.006798441170605994], [0.0004855272681057802], [0.0027293116162606305]], [[-0.006974680375469141], [0.002534729001143973], [-0.05585254206105062]], [[-0.0075236833944161505], [0.0036897285604795883], [-0.05235969221442234]], [[-0.0031138680975615995], [0.0025011729714278096], [-0.0025674060209713396]], [[-0.0028891556821181064], [0.0010181584530638862], [-0.06430382989609369]], [[-0.0010497543382557639], [0.0010257062337425472], [0.05133891429057526]], [[-0.006156935703562786], [-0.0003596661077041878], [-0.06131334656691775]], [[-0.009989092503315488], [-0.002321932150727044], [-0.06768363726359902]], [[-0.006508876570835763], [0.0003758005923114333], [-0.012500651139557223]], [[-0.006978970934869629], [-0.0016694921657711584], [-0.05180337639800015]], [[-0.006586851726463558], [-0.000585705988888135], [-0.09066256585930305]], [[-0.003983147905446206], [-0.0024237242335660297], [0.0904450280991252]], [[-0.006883923978722189], [0.0010878516779896322], [0.006378793467086873]], [[-0.007994381783820972], [0.0027112972501735816], [0.05249229133656431]], [[-0.004239480029651368], [0.002860528203834402], [-0.02231909135514759]], [[-0.0037132311210540322], [0.0008483302085415469], [-0.015667356389502587]], [[-0.009396584564180308], [-0.0024722237601248567], [0.03954218116180999]], [[-0.00889391167406074], [0.0018331062242418743], [-0.024554143789119683]], [[-0.00669733377390434], [0.0003922798340261093], [0.017102354405381697]], [[-0.00653176693871881], [-0.0014963478320436537], [0.008122245322605484]], [[-0.004396743806538483], [0.0012991013546794841], [-0.04756805576487689]], [[-0.012444137923617971], [0.0008078482142632164], [0.02914398946577238]], [[-0.007121781315053127], [0.001073764866688426], [0.06385224755612874]], [[-0.01244316748254753], [3.662750657767135e-05], [-0.05130742594538825]], [[-0.008237125337479358], [-0.0015221419912295811], [0.03927569061840015]], [[-0.007997798896483853], [0.00047544752483469945], [0.026285515003785273]], [[-0.010497581314080111], [0.003994052116435087], [-0.05350407192621179]], [[-0.01127776063412872], [0.003729480035849747], [0.010225620114484545]], [[-0.004824710957146029], [-0.0005940671896888495], [0.027744571127276286]], [[-0.004799290604680904], [-0.001364575883688454], [0.026777125360010423]], [[-0.007034366452820956], [-0.0012798187781744618], [0.014317359850693443]]]}