{"sizes": [10, 30, 3], "weights": [[[-1.1185069092380107, -1.2151198620745212, 0.683549141877073, -1.941991746688598, -0.5376024283809197, 0.15947351040950575, -0.5056659492626702, 0.23245007166017825, -0.6756811029934416, -0.06924144133615827], [-0.5503631308557835, -0.8703308157538887, 0.43477409108843434, -0.7662187661265782, -0.7858283256334629, 0.21171985978731309, 0.003161148613384996, -0.00853997839920585, -0.6353023777804693, -0.5671431110623054], [-0.1015427341415829, -0.8231357931003795, 0.26889310860999854, -0.2901528394272945, -0.600542951723746, 0.3127017342451485, 0.1692571069519721, -0.3496915384284016, -0.44265852187688287, 0.0020275337495085036], [-0.9878542601279562, -0.5172680683080274, 0.5133523174039798, -0.8355640598058872, -0.9671515846046695, 0.16780594852389058, -0.8189191045562983, -0.7352345618783167, -0.6822495160768501, -0.5317895890436265], [-0.8963569839850825, -0.9602028319384814, 0.35590973681907234, -0.7588427891943512, -0.5244834414649551, -0.08828734614487882, -0.22171612195339022, -0.021762252615775007, -1.1278390080484264, -0.5595882721729633], [3.7344923238623333, 3.278982040803534, -2.093642265781891, 4.885350073007456, 0.3620191631006619, -0.1780155543266453, -9.56351238061098, -4.83247864326053, -1.3531968122633393, 1.6070964174979945], [-0.996391892782252, -0.06955375657727401, 0.0399092124168024, -0.3942111929915314, -0.5310039177125624, 0.17375804703341569, -0.4234161095435793, -0.9736406538482515, -0.7113043040295461, 0.8465254397751797], [-0.5097950541491973, -0.8950301333323964, 0.20344530454820164, -0.7887595455577354, -0.29470519789485544, -0.3924208717471843, -0.4942374771311777, -0.7720362427265007, -0.44855078353401706, 0.17221852606045301], [-1.0550984223231237, -1.0210381112116729, 0.7407143780311051, -1.430031665897618, -1.0011549670873652, -0.09525549912708897, -0.1914896340777755, 0.4849700401211474, -0.8217702443598082, -1.012226892201369], [-0.47669094840649406, -0.15221570205823018, 0.7011714790233866, -1.736810653042473, -0.9914685945583757, 0.026332952956188833, 0.24319492566923637, 0.28511943499883025, -0.5455929947793523, -1.0796692908087413], [-0.5030142340853868, -0.8576922521833198, 0.1057227088003245, -0.7460609775574326, -0.135246854027235, -0.06060019287487567, 0.08457083158073381, -0.37201264483802104, -0.2616584870055477, -0.13986110798664644], [0.017701619837251943, 0.28746664927089033, -0.4609809119675966, 1.4635118276017909, 0.26854159566093466, -0.19663701535051023, -1.0678108740268966, -1.6986003739035618, -0.6886485516107412, 0.4735107807699664], [-0.28612990575938907, -0.9356344081928923, 0.6889487665832301, -1.6438320668473796, -0.824635990370389, 0.5424462474263223, 0.05856811992755648, 0.5771752886533865, -0.742324162225299, -0.49772950640089714], [-0.9532911749119035, -0.6414442442700575, 0.31039567287361924, -1.5650112405539445, -0.4577802864483223, -0.10469617656342843, -0.1358315780859011, -0.06946282100790331, -1.1079003287951572, -0.7879722291554925], [-0.5610095457898427, -0.7635395209526341, -0.2354380966798733, -0.1870817605983849, -0.2620433336680902, -0.042736621792907686, -0.6373607156729917, -1.1717524300540498, -1.2150052798669777, -0.0999243570226245], [-0.7734266822805055, -1.277767923290918, 0.5449964861150712, -1.4604172606598258, -0.3918184952641214, -0.10103554904107405, -0.3007955097265743, -0.19528072851999928, -1.1084984002793177, -0.23828717006754543], [-0.4810652947935547, -0.16169117138009187, -0.40812203521802315, 0.27353847181290314, 0.04544512074468521, -0.22733570507941528, -0.4239220476554934, -1.2261423667557227, -0.466588357865708, 0.5215498334152484], [-0.9346192982263017, -0.9845370093447205, -0.08630419825481042, -1.2076027072609499, -0.7165444357887956, 0.010400573943971156, -0.561939336592375, -0.566363310815074, -0.47177294486633287, -0.5024335980418191], [-0.9584355663298928, -1.1423483966755499, 2.144447087341428, -3.406247899331677, -0.898864300520067, 0.8223280219103777, 0.16399310412417445, 2.9033578709222714, -0.9165935622373035, -1.9687245182723596], [-0.07450949257905362, 0.0018134649763217668, -0.6366581498916709, 0.7518057684156424, -0.1519799660861919, 0.3424329838465847, -1.529095109406167, -1.487391645706032, -0.8176425771910135, 0.7885947391184618], [-0.6276754609796878, -0.7236149949167463, 0.012747012204234872, -0.42062555453451367, -0.5615750728555587, 0.2529901387255107, -0.8705042182308876, -0.5576118326732252, -0.6127064517594822, -0.3529057852934602], [-0.6401045390325233, -1.0692434898151049, 0.6007374177646915, -1.079001653391195, -0.6655281541846728, 0.20998016627471158, 0.29008836378070746, -0.004148992332998162, -1.043817060069686, -0.6257214599492749], [-0.6811547852791637, -0.6130693378434645, -0.3030554475569621, -0.6321431924526415, -0.9301257264025596, 0.015411428501673869, -0.9623024756216215, -1.0458045251589905, -1.1179416721259352, 0.15307217551125998], [-0.8185190892996395, -0.9304514352549356, -0.2533921989974628, -0.7463447990439361, -0.8014057260521473, -0.19859086300119225, -0.2758149381794754, -0.3554588627096692, -0.7732114075151424, 0.006272461761208012], [-0.38718556655626485, -0.7717975620124888, 2.748472895382967, -3.2145094246564003, -0.6063465741625991, 0.21385867676495235, 0.03203800467803769, 3.7023655614558995, -0.5038093775983006, -2.0360871238842027], [-0.7765568294416915, -1.314266653450221, 2.2099570928163863, -2.605697094733374, -0.7559997091206243, 0.015703969289967475, -0.44876116642450065, 2.460096635171648, -0.358162599430521, -1.7132632666918126], [-0.5511195737045956, -0.05730817156617954, -0.24425854709322656, -0.5693987835483288, 0.035507768288067586, 0.5858876584529492, -0.9022753932305869, -0.5162311388725, -0.5619056552969135, 0.08662696116406057], [-0.5660250882402118, -0.44386950820646537, 0.01606450094866526, 0.010255265707798137, -0.3701067101911485, 0.11197270809747147, -0.4891283528500158, -1.3657445461076405, -1.0602244351584134, 0.5409146740577307], [-0.7597058166458718, -0.9636660376832399, 0.9047795629169937, -1.5800374314969783, -0.17782004121141903, 0.18195296256581658, -0.9219419162829974, 0.7234765009180255, -0.6621789174685282, -0.3205472368995557], [-0.7703099352384397, -0.7759105213252676, -0.008348016200007599, -0.8899135659676505, -0.17966216453527198, 0.061914652412212896, -0.5381885780892036, 0.15708950567372187, -0.38869032910965, -0.8324785864813766]], [[1.6820062410040875, 0.5681665399097736, -0.04696130552593919, 0.7658844258854467, 0.69023006881686, 0.18637313431049735, 0.7392600135361602, 0.6194195145490147, 1.0599081283716627, 0.6640673604424009, 0.4272783872184653, -0.29797221318672334, 1.050696925020426, 1.0663813274754117, 0.390804286990968, 0.9632301826602844, -0.03154582451305798, 0.8841370354455717, 2.5224867206847037, 0.48068599900409975, 0.531344888549866, 0.7630129657721124, 0.9271641315807659, 0.6074047166630321, 1.967872099681195, 1.8642163112827617, 0.41970616166800184, 0.3564682280611322, 1.5285019915210607, 0.42291764111663493], [0.3519538231520231, -0.06835428479469492, -0.016762043081076778, 0.30066578748754347, 0.20817159644436456, 0.9072834374348371, -0.29277304718033653, -0.18051739421384175, 0.320872005719438, -0.3023400071266234, 0.17459285544015962, -0.3206239173547667, -0.28187696580046895, 0.1596203668169246, 0.14423754281688853, 0.07876196400275491, -0.4348072684424712, 0.24163999072799489, -0.21496220208795197, -0.24312710290135325, 0.20116275324483399, 0.3064574127881047, 0.4663174204063654, 0.3600693261188084, -0.6653708806898406, 0.11591792527692384, 0.023133932490514233, -0.24623226270016046, 0.38811633913715704, 0.07294423661347942], [0.328111103742575, 0.4741283611442672, 0.147274060090248, 0.20059605018898324, 0.41772718557812205, -1.058697408819539, -0.4452480043314241, -0.03733126454897897, 0.7448417322582481, 0.8090959536110566, 0.21968228265670273, -1.1479578276113793, 0.6792598218869516, 0.5167955196055593, -0.38789337684076475, 0.40257502263430445, -0.686966248516777, 0.23308223591108074, 0.9278180358146447, -1.1383539085200711, -0.03936076658052121, 0.5357851222292943, -0.35793369799242414, 0.04330612655807158, 1.4393669419262265, 1.2492967396055663, -0.22186372803660906, -0.5932306729623659, 0.5722437664241582, 0.5041678244449024]]], "biases": [[[-0.30312543853980034], [-1.9555821210391156], [-2.7133852395052585], [-0.9250921114083622], [-1.3528442441133828], [-1.5113527473057988], [-1.6772319058268226], [-1.7723442438098984], [-0.8925643133229233], [-1.9666507634110897], [-2.470022866453074], [-2.700337571857329], [-1.7176768911766547], [-1.054000910284297], [-1.2310897172344912], [-0.8150799344573968], [-2.366216048908152], [-0.9755696874559578], [-0.7989347321887501], [-2.0436673781652823], [-1.705932364448256], [-1.412563031995517], [-0.4990496493207802], [-1.3330838384718469], [-2.3543359324198176], [-1.3102602281579854], [-2.499352660710707], [-1.4770253626237269], [-1.1947933408575158], [-2.1754470583228014]], [[1.6495045053671076], [-2.5817854260701907], [0.17640293775456167]]]}