{"sizes": [10, 30, 3], "weights": [[[-0.020183591843560177, -0.027622893512852586, -0.260875065604179, 0.3882309721596461, 0.02781187896762479, 0.18852510393193145, -0.07719366102795958, -0.11142526034750778, 0.7690934989564814, -0.09509746452125108], [0.06709595553824185, 0.12331209564035285, -0.4409519574538036, 0.5983169383420279, 0.36836554548980577, 0.1876247096964013, 0.36199113552635426, -0.16675738088388398, -0.23047151671172153, 0.1372843258781978], [0.38210187721990296, 0.4146742909406262, 0.24757640501795422, 0.10416694450847344, -0.20959364422616863, 0.08450343880196459, 0.47198284834181703, -0.41932731064528633, -0.28460246480739027, 0.10946941159809245], [0.1341780776682973, -0.028207637047700233, -0.21004905731490386, 0.07570660233848485, 0.03520282935311896, 0.5003786391458052, 0.007465973027203367, 0.2318917804999973, 0.267093267681474, -0.19081098537085303], [0.019039049580733627, -0.04140632657105306, 0.41859355956646827, 0.0735150958036236, -0.186049494739704, -0.02142384303601692, 0.006788146876223322, 0.33305507638373405, 0.10294276535148551, -0.17465166738510252], [0.17702412307546753, 0.29755414919422135, -0.2922650942848157, -0.2686756021887295, 0.18877051790876825, 0.1475989256241887, 0.072067165182168, -0.622807825551246, -0.20493530036917812, 0.34405330936393075], [-0.15711383864442133, -0.10653467408389407, -0.04103097866983019, 0.05513675096402757, -0.30440771401531147, -0.03867659443681593, -0.22930133533036143, 0.3367243585164699, -0.14497933669889623, -0.060601489442604455], [0.03584996315939791, 0.35619588155210213, 0.06711684247691171, -0.023693649366066227, 0.31320514266237875, -0.04791491962426759, -0.3953351526315895, 0.22596836705720974, 0.21065108765743196, -0.2721363337416163], [0.19425815732351387, -0.0018674550631721891, -0.39922875326672524, 0.2831385392800404, 0.2771272871580248, 0.3138933560111322, -0.039753835274954255, -0.06919920025494027, 0.26062181381534116, -0.45259889599897496], [0.40186381859993264, 0.07316012251484419, 0.31070130729234857, 0.19418663444960962, 0.4695601210226857, 0.4087789352609782, 0.11057194950294609, -0.16160259042848307, -0.048346498530755073, 0.49672395645083944], [0.467293564693025, 0.059529361125677034, -0.09707307293388226, -0.6804494581484611, -0.5372077405807294, 0.5482863284318062, 0.3375470086203485, 0.6752066045691707, 0.08966296167294605, 0.15150968529676942], [0.14025991094194204, -0.03864722835397907, 0.13644999754390194, -0.33712369370995304, 0.01676680383086878, -0.13012673346539874, 0.05836127723794971, 0.43029332024350114, 0.3824280434540835, 0.3075389422829899], [0.2845120723041114, 0.26609757762423136, -0.053952124071194985, -0.10730998755783581, 0.24386102962071568, 0.13632298608233767, -0.14234952721268226, -0.22526043489514586, -0.38993965279952425, 0.17297074708077387], [-0.08853090071608777, -0.5122072898949329, 0.17146234989117465, 0.5567395511078029, 0.33986413396009824, -0.3375014124888535, -0.052608404770406784, 0.004618364680671068, 0.2809231006106677, 0.2578177879318434], [0.0022460974020813156, -0.297106131790171, 0.04313930654528322, 0.04909107240160949, 0.04519163298264144, -0.014877495529496219, -0.10738734857785376, 0.036762249980270764, 0.09991745359253223, 0.3659495765208916], [0.05001081973770251, -0.4730974804897079, -0.6919521225147844, -0.0006637854491049306, 0.016811907588222673, 0.00015760356416010535, 0.1747869798195904, 0.015618817830937558, 0.17971215665000087, 0.11529928125421257], [-0.20596641812606833, 0.03430289772728968, 0.03360030719912075, 0.37712244915222926, 0.41349704736883436, 0.30272900970605005, 0.2613611075797148, -0.08828580519084012, 0.26827449947471577, 0.06133814754854535], [-0.12250753150605047, 0.5738134932513734, 0.08710222916678449, 0.20929061428899604, 0.26459018515434857, 0.1711548176039215, -0.002895635735410353, 0.035597971795687834, 0.19829142840009814, -0.17660726050196596], [0.20718763859012815, -0.10583592328090399, 0.5657782983255709, 0.1686257401700365, -0.09617386481058644, 0.08868843246763733, -0.38642822326855314, -0.005085028468541346, -0.24125228884221894, -0.4597907032945795], [0.17985256397741473, 0.1782671686139353, -0.026499474995910956, 0.20701188356276767, 0.14507072242255423, -0.15892419533848845, 0.027839471039096578, 0.06752460861833373, -0.11634006496968362, -0.13865469405915254], [-0.17699041898893464, -0.6896333620102122, -0.016196813327622787, -0.08214357850384361, 0.28119511783623236, -0.5716582187681529, 0.04153513714026376, -0.06419737375993281, -0.08728898403556148, -0.07391659167633725], [-0.2868196683450124, -0.046117584948021616, -0.2676349674271328, -0.1701389006942789, 0.17279535771822724, 0.19450692982371762, 0.2814768214116211, -0.2546184871895179, -0.14956568979207777, 0.2422906729003071], [0.0069085346493536455, -0.05921615808502379, -0.12540778586634796, -0.07156001546215497, 0.35078892285753016, 0.019769935592436103, 0.13476356432426131, -0.23173768936629924, -0.047410166445459485, -0.315663744759892], [-0.4794703610311413, 0.02719051295221576, -0.1986558252640722, -0.36239431005642403, -0.07728271428628546, -0.1131316322371507, 0.02672521529235095, -0.06474244454065735, -0.31559611829948514, -0.07527671317504935], [-0.11331285869075373, 0.05111294499348791, -0.03479944035003952, 0.00018919297089937465, 0.6705784346977902, -0.2623940630656461, 0.051103252326726786, 0.25730190926095164, -0.22309289185158518, 0.18690448431724155], [0.04235029230251154, 0.21533443344977923, -0.005195979130135946, 0.030156474760782374, 0.061228953377417114, 0.01264390109064729, -0.09775401828003137, -0.1371470942867354, -0.505559695921413, 0.39631324285273584], [0.17782369390932135, -0.14441065164794922, -0.12185738191197873, 0.02573379723829756, -0.15309069960644708, -0.0617662195457351, 0.3125539624982836, -0.35101093771955877, 0.038588381840450166, -0.24747232945335934], [0.2282919480475389, -0.2653222349325037, -0.46734508807899716, -0.05851850206682167, -0.09735289503933664, 0.4530538442004565, 0.2396333748299765, 0.3006582282442214, -0.1654872528531887, 0.2126236989821776], [0.32685986873404826, -0.19854706629220775, 0.07535397908435813, 0.2321767275272535, 0.09800254225294061, 0.24154824885587906, 0.04838179138464235, 0.4963417307524051, -0.3710656221794291, 0.051759076886927206], [0.1500036205671329, -0.1870141158772721, 0.23689401799219367, -0.35907740531361076, -0.3461541355883351, -0.07185920941557149, -0.18115412323303645, 0.0050763455839828555, 0.08448303627480169, 0.3888479515857658]], [[-0.1661129473142549, 0.10007716176774138, 0.12770312575113502, 0.06247442108123673, 0.3416114839653451, 0.1395776966140663, 0.18722305964494368, 0.06847455529799569, 0.03127828212369628, 0.14362434408119118, 0.2936776507725561, 0.12215360375004074, -0.176477400246758, 0.09782447659118784, 0.22191182761205555, -0.25241679656787774, 0.10089475269145247, -0.04775715488564444, 0.08866968409614505, 0.12496873961131849, 0.17389532288412948, 0.011940533355145989, 0.33583120430125163, -0.19042781327900454, 0.22490701920839995, 0.1539587097953968, 0.0915743843457202, 0.37282822147994427, 0.08310396929478765, 0.05366095147081213], [-0.06207179524823769, 0.14126519293321718, -0.3272944791207645, -0.24220623473651479, -0.14115513075428476, -0.03098176014115556, -0.14639869596586466, -0.36739783894636135, -0.1812276151774423, 0.0848666753864653, -0.3050193669639467, -0.20225607253590663, -0.14600161338470694, 0.08477392125156676, -0.3735393243367733, -0.11481204646245695, -0.13804676405315308, -0.1233717915165041, -0.31280200073428405, 0.014389460825526503, 0.09928015039520363, -0.14394339825253602, 0.3334026125776312, -0.25165541246023937, -0.046241945324530555, -0.16548620283355786, 0.1115201161127134, -0.23250556519079163, 0.03343013241121529, -0.192296443657392], [-0.29537831172561707, -0.31233716759840613, 0.153280832165354, -0.19115990004281422, -0.04121441001494764, -0.13816529267232608, -0.18765906962844164, -0.19708066828991083, -0.11375872166328281, -0.3000092868843393, 0.21582924842210643, -0.09762278005373036, -0.36203940930574363, -0.30418599194345813, -0.023189933770560583, 0.032285045928575805, -0.0018649676361444283, -0.05747864737485616, -0.3082250827170593, -0.10092954079165069, -0.006705443895777083, 0.22400385272487447, -0.014496597014935877, 0.08573388201468615, 0.06490210111105481, -0.36912669999220676, -0.09071014443790093, 0.026790667105986998, -0.06064651177951895, -0.2324448185655168]]], "biases": [[[-0.24198077439486004], [-0.8698754030827116], [-0.614732665953957], [-1.0015814125510134], [-0.7547779992149473], [-1.0084416819103634], [0.34817525755319506], [0.1164387162801218], [0.6341516170316173], [-0.38354281035482657], [1.466544979425963], [-1.6307031773333265], [1.114412139908927], [-0.575653462728837], [0.2981044696368425], [0.7749444117710365], [1.2890368334420945], [0.47799688985333805], [-0.500075945686434], [1.821378999095621], [-0.4871499746666037], [-0.9766634455477551], [-0.3775452946529711], [-0.1349337608605879], [-1.0222541577239674], [-0.3181950644769177], [-0.35014062404681573], [1.0666300469035717], [-1.5632581922917386], [0.43225036727303884]], [[1.0250811057728009], [-0.5946040999791041], [1.2306261583029372]]]}