{"sizes": [10, 30, 3], "weights": [[[0.402671508221699, 0.3145443819411189, -0.31683992006811007, -0.1517665581035305, -0.21090324140209352, 0.5122068165991946, -0.0006511662645550958, 0.37426109387739015, 0.06106824444194699, -0.503116407515812], [0.08136751229746456, -0.22131209969032054, 0.0015012624975106888, 0.08012292871082094, 0.1289502518694768, 0.29305811496176876, 0.33708870438559, -0.11008712445764685, -0.14608006861811196, 0.10028344808589244], [0.11539306367373382, 0.18165984445563688, 0.009230702588803229, 0.19595525833851002, 0.059810275664852204, 0.2850591952484085, -0.27625162784545654, 0.005654771638098331, -0.11434079860011576, -0.028439377259216327], [0.0402629653747654, -0.33985461312437143, 0.48985535648056633, -0.351310508033789, -0.25036860429531743, 0.1713230084420036, 0.06146000208759397, 0.026674395701371523, 0.06760020233693366, 0.026622147682951756], [-0.29885989932532064, 0.326215865652264, 0.5015494337491093, 0.28527325886075877, 0.16464688843221809, -0.14739634484794803, -0.24502051409705528, -0.5400219392271166, 0.1952759222474423, -0.4633105113389218], [-0.0714859774626854, 0.11962190389215767, 0.15923910968781851, -0.20805428181535765, -0.800485696385979, -0.26065070814752256, -0.0011988572057589242, 0.13380037536722275, -0.0927333357780101, 0.19943565908897593], [0.13962683597584344, 0.35741205191123226, -0.08392373623434606, -0.4592084668487909, 0.10504133361626579, -0.1482881180761667, -0.22458248340816053, 0.12635385732540075, -0.23930126141390756, 0.3802809560857692], [-0.1732666516100773, -0.20361639214669636, 0.21544902906223548, 0.07626393259433072, -0.08258299584031799, 0.41517234993763596, -0.06818055883615715, -0.40246758388426446, 0.20407946374956773, -0.4343974646610449], [0.02084641407273736, 0.12148568573467293, -0.24481113097827142, -0.6092692967487343, 0.38939401487647446, -0.4821200757115209, -0.06357128089092515, -0.44719780732759107, 0.5330774447210006, 0.44699051802844386], [-0.023207490220516807, 0.49614760051914836, 0.18372711699588554, 0.035669804725451365, -0.3143243050307672, -0.15362956645619294, 0.2979617324120433, -0.2194102697566899, -0.06937809553438547, -0.0896123489168049], [-0.017444256054382875, 0.03898229300187158, -0.5284875105838042, -0.21883859887901186, 0.5920833195017373, 0.2267357737642589, -0.5172081280746372, 0.23870219643895377, 0.1298739609966815, 0.622558380671965], [0.3547773647216016, -0.1021636917370754, 0.05148261839166087, 0.028589704449831624, -0.3079950801328334, -0.07892359972547207, 0.11694332031386563, -0.4696408118419394, 0.13387043381703037, -0.33292944448509854], [-0.011822396829808464, 0.216645264164245, 0.1975798271747695, -0.35726069396490584, 0.1633668411247472, -0.27219887995501446, -0.5830235796512514, 0.06745423018263177, -0.13633505204794924, -0.27561651865263853], [-0.18445235002327828, -0.16611527222521752, 0.3240680746983588, 0.05975110903369772, 0.386371481124386, -0.1187504276447001, -0.5510141690804339, 0.2568887053537992, -0.3176512692379286, -0.03451913300517021], [0.3441710769284634, 0.013159910576428136, -0.2523527863114449, 0.534114635749501, 0.0021511337933465395, -0.8601941737027833, 0.4145674110441317, -0.044004391116243574, 0.29338617022787516, -0.35500655959676675], [0.550206064222658, 0.03589768544121508, -0.45916272755502624, 0.41864158900338977, 0.2578872080596533, -0.40523389404713567, -0.10286850582401226, 0.20359926862323394, 0.12344986504490162, -0.8419018846221341], [0.2912527049243826, -0.5524202264378046, -0.2423096256002224, -0.1012235302858454, 0.5964001222203992, 0.017768134633082744, 0.6667274997430078, -0.5427650568250869, -0.3290598871731041, -0.27252025124218], [-0.08254957751816029, -0.35092592557122526, -0.045743579954857616, -0.37745040818240816, 0.42088634276912734, -0.3843033197605242, 0.5427468512966296, 0.173809858652688, -0.058652413814565596, -0.4298715350737313], [-0.08181745507850131, 0.32966689156837037, 0.11646886708598085, -0.0847426966285749, 0.023829120602181796, -0.46076371519898707, -0.31733678623000294, 0.02006296877375756, 0.45004492957216347, -0.3504131997092668], [-0.44006825385938464, -0.15629018268814746, -0.2795372406100484, 0.34637597420306193, 0.18166893715341584, 0.35613262782816985, 0.5504514479776165, 0.19499787152706483, 0.1283796673532504, 0.40629199992965026], [-0.5682518040345811, -0.2824094513351995, -0.03662947927593581, -0.3640636539772349, 0.12421432889360978, 0.057229700164703676, 0.1751985083283624, -0.4649821891423733, 0.11535928630225419, -0.01294528103465536], [-0.24786831233906328, -0.37884183444395647, -0.3581070671527153, -0.2789755784712483, -0.08479506332795332, -0.20506114233561148, -0.0010852099704944287, 0.4238786634238386, 0.3538826769370612, 0.658522319607397], [-0.2386531663960104, 0.35396812553925316, -0.5096729168156166, -0.1010910277174483, -0.1789932295564152, -0.15182077716020137, 0.25062331798630016, 0.227779868581985, -0.29461070224482205, 0.12911703716380712], [0.17137802065642835, 0.08157678240509116, -0.09298895077703563, -0.2628408989738799, -0.4085790950639851, -0.5160163073785606, -0.1265422545249111, 0.3779590725878531, -0.1846732913593282, 0.4103054680620023], [0.10274041330701152, -0.12331777697259685, 0.3624850868214905, -0.02422794071033323, -0.499754231438732, -0.2326078763311384, -0.045664112769943366, 0.0005386706719722756, -0.06859404047647541, -0.6824242063945997], [-0.3044014688048265, 0.044112185945771314, 0.15207277764807609, 0.604221891849348, -0.005740227943873254, 0.11739330139735388, -0.2662113578790332, 0.054162694123955836, -0.1758638011283301, 0.22252339640652616], [-0.09869592145969949, -0.27352530937415254, 0.48978424883631233, 0.33835413613835913, -0.38289423572970976, -0.4343411815910688, 0.4197221603308053, -0.32338268741987364, 0.11199912031319233, -0.2604923248848677], [0.6294708697855617, 0.0445251605549205, -0.496030618088207, -0.5801466456328007, -0.3395129599314435, -0.3234664857532911, 0.16750423944339854, -0.7357802799842111, -0.4172057004030097, -0.03762938641814439], [-0.17281817719455378, -0.436221988351252, -0.13933266763666988, -0.21417661008552724, 0.2734049747740402, 0.42455841542748907, 0.895376555748988, 0.2089149145268151, 0.2982801282585924, -0.34337220020344006], [0.23342130283380924, 0.5361982224245471, 0.10993113894872833, 0.058696296016159666, 0.3316860977826941, -0.15012197097664925, -0.3686289311607766, -0.1748925982165964, -0.08878637791136315, 0.46314363134558284]], [[0.35908364396985953, 0.17609093440787676, -0.1387282975797684, 0.3624130632933994, 0.11088595165251515, -0.025297747430310127, 0.2568969958795377, -0.07664349304623214, -0.11032889594155149, -0.002840083490391532, 0.09037256630661077, 0.08874805481716105, 0.08129763113199255, 0.05744922229678959, 0.2726179343111334, 0.01508016568390385, -0.09447416998799946, -0.06108316906046407, 0.18472672599369078, 0.15589634157109278, 0.031133932791967474, 0.09056872602651166, 0.14365992372154812, -0.2469322332437878, 0.4431100869356929, 0.43740416466679954, 0.018910779248729265, 0.12571714202593426, -0.16520059546708257, 0.1660779111161738], [-0.10915618005802531, 0.0013191448771558566, 0.0974039486323895, -0.5928962618934296, -0.11362826872900066, -0.25969287594383367, -0.11076426266174044, -0.1610919912762249, -0.1393217249832279, -0.1645577327206121, 0.08838440884973864, 0.22039554399464106, -0.1054372552103032, 0.024509201050635664, -0.026887133247703934, -0.328596844753325, -0.2111370451633122, -0.2392423898683764, -0.09949192652709433, -0.06338452646805395, -0.25147011024475113, -0.16999624481139403, -0.19638837916422688, 0.17465462435814313, -0.4351567091467434, -0.20012391583438732, 0.04446295652069178, -0.15466253148128517, -0.020892094404367182, -0.12910888677992924], [0.22940889063650324, -0.023110011984972915, -0.1650992202388904, 0.18407623693003516, 0.09538244516087707, -0.08623439351850573, 0.2667456438942805, -0.024398270728176994, -0.09541091336449652, -0.35014903123456886, 0.2201429582506896, -0.11815701928877223, -0.05585617193486395, 0.02143012946888866, 0.09563117240754386, -0.4427725163302287, 0.16840350683933616, -0.08885536752399253, 0.00703885330192659, -0.20301523477101224, 0.053445147464552534, -0.2648014259912377, -0.19036472918172317, -0.15882748327167823, 0.0643257551646384, -0.0721758970930173, -0.04695777258126396, 0.11170935243747887, 0.033834822021532894, -0.02680323457997105]]], "biases": [[[1.06348228511347], [-0.11327202867606384], [-1.031739213375915], [1.2694728565047546], [-0.6703697192549465], [0.4745247124688098], [1.3147236161446545], [-0.24673802474345344], [1.2691743159560047], [0.2617534868593826], [-0.1547318773291093], [-0.5561832711897426], [1.617617947665187], [-1.3592012028512779], [-0.10245601992474457], [0.48475459884445327], [-0.0922594824651141], [-0.3512996118795069], [-0.4805655821797293], [0.6553924294867092], [-1.3030067231329585], [-0.05763970731179326], [-1.3027530082305838], [-1.902305796401518], [0.8881386397991767], [1.7347206375856816], [-1.0431479894941613], [1.0030086773973337], [0.3678379994761921], [-1.2108344932438393]], [[0.38906917498260357], [-0.17306228936431656], [0.21197438957071563]]], "trainCost": [2.3579646647415364, 1.8149313761127646, 1.5684486260929702, 1.4486285548239088, 1.3858197352907815, 1.350679633066539, 1.3298526822739574, 1.316987808130586, 1.3085252730620984, 1.3029787485188205, 1.299219971567907, 1.2966114209776778, 1.2947373865301952, 1.2934380249254602, 1.2924675162634387, 1.2917538319097999, 1.2912248085940918, 1.2908426639845658, 1.2905441162005555, 1.2903276077533077, 1.2901607247822, 1.2900350544748758, 1.28993336675523, 1.2898486441917232, 1.2897865942061513, 1.2897270930687854, 1.289681433340959, 1.289645154063409, 1.2896116154497197, 1.2895809461252266, 1.2895564838358426, 1.2895315333771094, 1.289506540367044, 1.2894837170793643, 1.2894632918454991, 1.2894361739496152, 1.2894134812645037, 1.2893933502110657, 1.2893730414619389, 1.2893535518690875, 1.2893338125403904, 1.2893128450095186, 1.2892932521506049, 1.289273618554425, 1.2892540280954807, 1.2892353024457017, 1.2892152871258202, 1.2892052229944126, 1.2891795374829267, 1.289158829840976, 1.2891434047486732], "testCost": [2.386881815779598, 1.8224556941780021, 1.56097111813995, 1.4306997438466635, 1.3603693858837036, 1.319873016847162, 1.2950497778916985, 1.2792302028249776, 1.2682817071029062, 1.2608037086658774, 1.2557032687571685, 1.2519633971994915, 1.2491565757028202, 1.2469720150146149, 1.2455112803667654, 1.2441671123685294, 1.2431377701990123, 1.2423043166140737, 1.2417678998816417, 1.241175955975073, 1.2408816549257984, 1.2405066401435876, 1.2402456638462502, 1.2399130248218253, 1.239847393698186, 1.2395118845835698, 1.2393953310965073, 1.2393772521992654, 1.2390369690975154, 1.2390327870673055, 1.2388930121065123, 1.2388573247859263, 1.238784618299205, 1.2389027795884406, 1.2388762036881975, 1.238717045100854, 1.238560728122969, 1.238601539872463, 1.2385504623472485, 1.2385319619587716, 1.2383626076480954, 1.238415438336035, 1.2383743871821908, 1.2382968003858825, 1.2383178078038477, 1.238238840526696, 1.2382769743586282, 1.238425785009569, 1.2383283136501038, 1.2382690332134498, 1.2383086164309167], "trainDelta": [[[-0.4596393967051371], [0.4188631665341191], [0.2826328879117172]], [[-0.3022640854294981], [0.276529002964033], [0.2005988963375765]], [[-0.20638493929282128], [0.19198792348059038], [0.13575222775620444]], [[-0.1477455294573647], [0.13972029387947463], [0.0908079109289811]], [[-0.1105209619893561], [0.10559719606319452], [0.05932806321235063]], [[-0.08487093341548002], [0.08209691211071486], [0.03990540171912848]], [[-0.06677463063635951], [0.06530312403014485], [0.026788267604900197]], [[-0.05351991833097444], [0.05286757000902215], [0.018806212999646313]], [[-0.043382372986682155], [0.04339567504770987], [0.0115417560117916]], [[-0.035662175016242824], [0.036010290064405905], [0.006592356281222218]], [[-0.029552676168570005], [0.03007448004032394], [0.005307155109214912]], [[-0.024648266592184092], [0.025383293636234466], [0.004061919844167925]], [[-0.020626716612458292], [0.021473840308443213], [0.0033489068012860284]], [[-0.017547956158254753], [0.018315790454819205], [0.0013690544794611242]], [[-0.014871286064616174], [0.015567264120251629], [0.002742013281014404]], [[-0.012659136732300643], [0.013308590087046199], [0.0016168924516684296]], [[-0.010716395462984259], [0.011438587632899061], [0.001166845120671497]], [[-0.009179017759159046], [0.00985937263354622], [0.00039572974652721206]], [[-0.007763743029490828], [0.008483782062322151], [0.0015233454098357877]], [[-0.006675371056638678], [0.007346192246929566], [0.0004895347935268985]], [[-0.005733783073049989], [0.006323605658879687], [0.0017417002053034339]], [[-0.004915180025192133], [0.005563753054355158], [0.0012570085386713046]], [[-0.004245192913677565], [0.004812480720548648], [0.0014898256499842296]], [[-0.00361625770062449], [0.004182421238286311], [0.0006038099073496133]], [[-0.0030749980607258313], [0.0036447620510664225], [0.002060270942908635]], [[-0.002598515388612794], [0.0031815638552710485], [0.00046489898769076977]], [[-0.002210495847526364], [0.002768326734722724], [0.0008384921069012616]], [[-0.0018653750019430341], [0.0023644132349471547], [0.002076920495935584]], [[-0.0016577013288854073], [0.0021069114990474582], [-0.000500676617098737]], [[-0.0015224853640136012], [0.0018515653109045511], [0.0003192903410512375]], [[-0.001392966075881441], [0.0016502160066344245], [-0.0004269054212629531]], [[-0.001317324409431655], [0.0014814219817211628], [-0.0001932805687377901]], [[-0.001130406591085246], [0.0013256434070136804], [-0.00018037389887822815]], [[-0.0008654679426524846], [0.0010885966787818314], [0.0020514018065913024]], [[-0.0007859490936772121], [0.0009402965466831966], [0.002320191012426198]], [[-0.0006684037973210853], [0.0008057552365460885], [0.0013037433699728729]], [[-0.000523264737965665], [0.0006782117455647913], [0.00030868199407782423]], [[-0.0004161425417409185], [0.0005261096648436711], [0.00134009909565709]], [[-0.0004244852979628391], [0.0004990681752187777], [0.0010646680289111252]], [[-0.00030184665164303785], [0.0003982845738464117], [0.0014291291968970934]], [[-0.0003068134539386525], [0.0004237179402668676], [-0.0001616776669357446]], [[-0.00026949037523938405], [0.00031334151018115353], [0.0008438660267478233]], [[-0.00027540386930681796], [0.0002975201167741977], [0.0006582023286432065]], [[-0.000248883513443693], [0.00020152103265651865], [0.0002306227280175172]], [[-0.000246875727703888], [0.00017635721963358105], [0.0007281489623699018]], [[-0.0002986396554252451], [0.00018967904879059895], [1.9253898115251097e-05]], [[-0.00019533078008182996], [0.00017462758836512575], [0.0008626053996180169]], [[-0.00013622771133680665], [0.00011784700562506195], [0.002752989991604826]], [[-0.0002244386461784446], [0.00017920821120541176], [0.001804216576777126]], [[-0.00020663629776484176], [0.00012304895641752317], [0.0015219417008068843]], [[-0.0001778732473763899], [5.4074446814972836e-05], [0.002270613944219383]]], "testDelta": [[[-0.4714965597897654], [0.42768831754894776], [0.30615888809564096]], [[-0.3144518931166352], [0.28551162514243394], [0.22427898088377035]], [[-0.21886969243149076], [0.20092929823480946], [0.15956236208442504]], [[-0.16043042251226908], [0.14857230661593468], [0.11470461086839871]], [[-0.12333502965871651], [0.11436015145292665], [0.0832803669319208]], [[-0.09777287396246595], [0.0907826186131266], [0.06388693950166867]], [[-0.07973724489778822], [0.0739249583710424], [0.05078560763086307]], [[-0.0665259656811304], [0.06143716152498042], [0.042809011849668586]], [[-0.05642094616341647], [0.05192249048492048], [0.035548374638441266]], [[-0.0487250615173315], [0.04450192543802011], [0.030598284186609395]], [[-0.04263445135796819], [0.03853662891438386], [0.029305595537466148]], [[-0.037745018790754134], [0.03382137484183249], [0.0280527558731178]], [[-0.03373563541068383], [0.029891346149703287], [0.02733112422056469]], [[-0.030666188548740196], [0.026716353234313442], [0.025344875447933464]], [[-0.02799752684311784], [0.023952828298168395], [0.026705356119997657]], [[-0.025792034966900614], [0.02168167470436415], [0.0255723042995891]], [[-0.023855142760712097], [0.01980124985718128], [0.025113080250783997]], [[-0.022322462490650372], [0.018213187393150334], [0.024333332643791776]], [[-0.020911493790710126], [0.01682984769362768], [0.025448889645074153]], [[-0.019826550753655876], [0.0156858587198278], [0.02440690433620701]], [[-0.018887959616546487], [0.01465751334865202], [0.02564670366604801]], [[-0.018072034611398162], [0.013893437547884729], [0.02515287410649769]], [[-0.017404311900665465], [0.013137976911844805], [0.025375195495426685]], [[-0.016777537657048137], [0.012504442386813043], [0.024480708113480416]], [[-0.01623818150438888], [0.011963855255262213], [0.02592445993618538]], [[-0.015763457530870783], [0.011498164240920164], [0.02432193589038492]], [[-0.015376940657024501], [0.011082738931939147], [0.024684816033809447]], [[-0.015033195274760186], [0.010676684733283665], [0.025910942103025178]], [[-0.0148265986726932], [0.01041794210461898], [0.023328014697049454]], [[-0.014692234299824926], [0.01016137637692184], [0.024136409182460333]], [[-0.014563567098608654], [0.00995913782018545], [0.023381516227231343]], [[-0.014488631905570978], [0.009789656013723294], [0.02360466135862688]], [[-0.014302703095778578], [0.009633258679149735], [0.02360750449771381]], [[-0.014038919629229972], [0.009395085984496569], [0.025825128093892955]], [[-0.013960105485383078], [0.00924621613971776], [0.026083402579901428]], [[-0.013843379068204967], [0.00911118544013901], [0.025058793137800874]], [[-0.013699128451698172], [0.008983195966579658], [0.024055533905601657]], [[-0.013592770446136836], [0.008830493361085991], [0.025074986853617257]], [[-0.013601610061523921], [0.008803641461106012], [0.024790041230714065]], [[-0.0134797832179239], [0.00870257842002007], [0.025143826942256958]], [[-0.013485272402126325], [0.00872852719725838], [0.02354595649018601]], [[-0.013448541917154588], [0.008617815835252904], [0.024539578379171555]], [[-0.013454957423768813], [0.008602254519835375], [0.024344235577058445]], [[-0.013429016088935906], [0.00850600675034424], [0.023907417579701842]], [[-0.013427523830376034], [0.008481044374786136], [0.024394005765942448]], [[-0.013479685870068025], [0.008494819467755666], [0.0236764108797395]], [[-0.01337713578584284], [0.008480027678436801], [0.024508191350696953]], [[-0.013318669332301986], [0.008423251799419064], [0.026385039926119798]], [[-0.013407198527952913], [0.008485370933902591], [0.025427995605044607]], [[-0.0133899475098761], [0.008429215813355212], [0.025136266428691566]], [[-0.013361759602950128], [0.008360170119295239], [0.025873535550916822]]]}