{"sizes": [10, 10, 3], "weights": [[[-0.08309100201891684, -0.2449576571519205, -0.0865207195173245, 0.13536895547672823, 0.15331555538090463, -0.1153881547563613, 0.016136112152877465, -0.5602786488905853, -0.09131949940291788, 0.7975783571913133], [-0.16398472365705224, -0.4526797537659666, 0.03930998557957641, -0.4017536817172467, 0.44379208145846594, 0.33378491958032025, 0.17266114679997532, 0.13124756183772027, -0.07345813405632699, -0.18141541309074394], [-0.4238248522229916, -0.5116858402744119, 0.12671190979707408, 0.04867564882932242, 0.0900547851066645, 0.0013437423102299407, -0.1835807791238546, -0.044541849671295854, -0.08577231741023715, -0.06896546541415684], [-0.43137104371268165, 0.4048459857087504, 0.7822884500815477, 0.26919212479781707, 0.42249165679739725, 0.21821252243459527, -0.07863532302845938, -0.21157840343359188, 0.15743938357083936, -0.6513880553826475], [-0.24944954877203482, 0.4598631656474159, -0.18159976798055777, 0.10470653600855839, 0.10747449108948255, -0.5686266896908114, 0.5154177133491146, -0.33588773655182735, -0.01850125425239398, 0.4666132724834989], [-0.2713602591903812, 0.23036902537050163, -0.1554385683466243, 0.5498071146425575, -0.2023357798468229, 0.4048681206365156, 0.27502732217405046, -0.16285554557289092, 0.16159159144191815, -0.19658994102143545], [-0.02642385680377053, 0.02558990801850255, -0.3182941626692311, -0.08880694067054933, -0.5129798666028212, -0.08646473185619757, 0.07032700264079614, -0.18405545436646398, -0.05314246175363476, 0.4558798026531233], [-0.09706467094481723, 0.017991585438643654, 0.03468892015483706, 0.3943209092195926, -0.14328645098095705, -0.03919444489125945, 0.1273942446195892, -0.07944574510076341, 0.14330086425334423, -0.3398964731696994], [0.1665876114375227, 0.11771501335572938, 0.1255594917326448, -0.5146451236228228, 0.48402502378065687, -0.04353588040379894, -0.25378959201808066, -0.0730512224239257, -0.10713754609964148, -0.031065334286929747], [0.9858796275291959, 0.3347914057053663, 0.3705739438910286, -0.9670896210630368, 0.15438695084978837, 0.4765589854031803, -0.23760765452550492, -0.31665562498723154, 0.21663039262576295, 0.1365777397290984]], [[0.01950369552571205, 0.3631906963823093, 0.06897593296081928, 0.47747838205797266, 1.3694795241899842, -0.14412613498906388, 0.0050105104146424585, 0.4456275395914147, 0.556770343629276, 0.1574522534530179], [0.18235715539324399, -0.2709226733286151, 0.08409561003724754, -0.4959983316840785, -0.26613780489041927, -0.4046219015220579, -0.052686676653568576, -0.4914555760607076, 0.03274475006367433, -0.37190590548455166], [0.38631978508701337, 0.4679362828557385, 0.053647616104018706, -0.06977868409953587, 0.09700014761303384, -0.07892555794220903, 0.08924352950376974, 0.03867166403212523, 0.06264679724611906, 0.4124080899907025]]], "biases": [[[-2.7768786546175845], [-0.10145786657863581], [0.8491023164222059], [1.2356259379061065], [-0.4766132523964052], [-2.041325177682762], [1.2552642124069964], [1.2633842816402936], [-1.0269285161796105], [1.051594622526444]], [[0.6038196645273383], [-1.08449106138099], [-0.8298897324214196]]], "trainCost": [1.379701134549806, 1.2837572199683054, 1.2707943874734378, 1.267422001603789, 1.2663747524426516, 1.2661848577842654, 1.2660043922595081, 1.266269714837237, 1.2665936455305167, 1.2658766557901573, 1.266251795860655, 1.2659537147798698, 1.265795266406756, 1.2658846596324185, 1.2656723712151243, 1.2657238356892795, 1.2658539102189297, 1.2655114809748966, 1.2654911988453632, 1.265840136806838, 1.2655997577329703, 1.2653504617527649, 1.2655346647586379, 1.2653302782028375, 1.2656780076246756, 1.2651392973008664, 1.2650900559506788, 1.2651561928779453, 1.2650159422679854, 1.2649502325429864, 1.264939328214426, 1.2649359365655841, 1.264924170493678, 1.2649161078712823, 1.2649126832534539, 1.2649076231712744, 1.264902724144415, 1.2649032161273146, 1.2648976530868676, 1.2648883173295815, 1.2648852905143257, 1.2648841363061532, 1.2648731894567782, 1.26487452143077, 1.2648645440543338, 1.2648525550615692, 1.2648483116845641, 1.264843720601546, 1.2648378722751394, 1.2648318989057634, 1.264827186680934, 1.2648211684954804, 1.2648164265752082, 1.2648108848725634, 1.2648055163190124, 1.2648020915016505, 1.2647952330638628, 1.2647900049327871, 1.2647851876323386, 1.26478119424803], "testCost": [1.399000738654067, 1.3023800544268063, 1.2914898700894522, 1.2902146322827361, 1.2882956363142397, 1.2891695661521834, 1.2879705489001652, 1.2870554085839394, 1.2867452701305946, 1.2876767258515653, 1.2901462344778172, 1.2869988514001087, 1.2874077339231904, 1.2890321797019249, 1.287354777826254, 1.2870146214361495, 1.2865857852816007, 1.2877462043283374, 1.2873990907285042, 1.2898522038405762, 1.2891060081959016, 1.287896106240972, 1.2863095026041245, 1.2866234469423101, 1.2898605184256071, 1.287444686305782, 1.2874441589535288, 1.2863949651721462, 1.2866198776352533, 1.2867936645428744, 1.286863042029003, 1.2868435059834256, 1.2869495911492155, 1.2869958723822768, 1.286942546777593, 1.2869365235187655, 1.2869430169083058, 1.2868503087141285, 1.2868514650946383, 1.286900357038304, 1.2868540752114739, 1.2867990238842524, 1.2868880504356688, 1.2867925480870988, 1.286824964351625, 1.2869817643353023, 1.2869310421726754, 1.2868975631987152, 1.2869340800508755, 1.2869588258197415, 1.2870345410074562, 1.2869241826667457, 1.2870224140239321, 1.2869062333103818, 1.286926941689498, 1.2868118545306033, 1.2869505226648903, 1.2869589981098362, 1.2869886243583453, 1.287011639844004], "trainDelta": [[[-0.11548167102902222], [0.12904367912776943], [-0.02962793344775241]], [[-0.03737510242281603], [0.045230029909026075], [0.007918438051647419]], [[-0.019346577488362666], [0.021075710115517], [0.0005476742317739376]], [[-0.007582810407656025], [0.011552432142171753], [-0.008834892817431127]], [[-0.004868805609719583], [0.0051154863539614225], [-0.0004376041584504957]], [[-0.001498320060998276], [0.0029674384843361326], [-0.0066071651041327475]], [[-0.0008625195361536264], [0.0011464737255664035], [0.0018924682372969586]], [[0.0006548517853548447], [0.0008694267404791739], [0.012653128338779235]], [[0.00150322127138453], [0.00044158853050533636], [0.018433487565688005]], [[-0.0007097180735705246], [-0.0003141514363883721], [0.003091222060727891]], [[-0.0014084210089475224], [-0.00033436860790002316], [-0.014418733118642287]], [[-0.00031247409096346113], [-0.0011250062363725244], [0.009375049572603688]], [[0.0003459802440579446], [-0.0012962833153485382], [0.005275307184833707]], [[-0.002082113525439339], [-0.0007878908694345675], [-0.009099846210781103]], [[-0.0010609934644971956], [-0.0006638171173565019], [0.00355741080862409]], [[0.00010725357102630874], [-0.001597130383412501], [0.007555630339880554]], [[0.00011641607538402294], [-0.0016477620904048885], [0.012061545802642877]], [[7.842373004203699e-05], [-0.0010428523957174858], [-0.00010357243671307785]], [[-0.0020718657254808074], [-0.0010908959094358662], [0.0007471185378701209]], [[4.8636580801839104e-05], [0.00010181934570748022], [-0.014391718148060678]], [[-0.000151481459380418], [-0.0003839784806195047], [-0.010568490063576566]], [[-0.0007119253613886932], [-0.00023709455217320858], [-0.003275785928697718]], [[-0.0001711853667352502], [-0.0008147548958238099], [0.011421737619184122]], [[-7.07994646694355e-05], [-0.00039165302853779127], [0.007318152674679959]], [[0.0006127823770754229], [5.7171234268396605e-05], [-0.015447024598804598]], [[0.0010992323500419487], [-9.461226052031518e-05], [6.783820685229138e-05]], [[0.0008046049039317852], [0.0006971718215223866], [-0.0005002170936384602]], [[0.0003357470701671433], [0.0002396440569475043], [0.008067805613496635]], [[-0.0012923457516087152], [0.0002809412142705311], [0.0037472945719690767]], [[0.00018301520108504076], [-0.0008062499566278008], [0.0028658318089519693]], [[0.00024321668138032723], [-0.0007495558239954085], [0.0022694738880329685]], [[0.00028258597456451423], [-0.0007625053905720667], [0.0024291891325245517]], [[0.000307318584666988], [-0.0007411552302127753], [0.0014942339787991773]], [[0.000266919196922485], [-0.0006201069360900733], [0.0010320223526773624]], [[0.00032072712825894256], [-0.0005679725610415979], [0.0014844812128919909]], [[0.0002889314800059856], [-0.0005812120546099028], [0.0014619518127371482]], [[0.00035525285290799084], [-0.0005691354228035471], [0.0014238497989137312]], [[0.00040514367724128904], [-0.0006054633716296559], [0.002214025603141779]], [[0.0004040382135089556], [-0.0005775650693786067], [0.0021599687530777746]], [[0.0003545805028756058], [-0.00044052455125532397], [0.0016617599134811788]], [[0.0003263629886468782], [-0.00046745324349144836], [0.0019831906394956016]], [[0.00036611852021477633], [-0.00046419999348693225], [0.002451259961703577]], [[0.0004015328518035576], [-0.00039195584476805107], [0.0016771651633409482]], [[0.0004450329012523305], [-0.0004358967700405169], [0.002490141728067061]], [[0.0002887649333377733], [-0.0003911146713258732], [0.0020192856633011146]], [[0.00010661928004813116], [-0.0003039443902828213], [0.0005088355583381184]], [[0.0001363666172995518], [-0.0003553710514779048], [0.0009013162510504823]], [[0.00013292670849353384], [-0.0003385986269188732], [0.0011320308053693058]], [[0.00019189085297695942], [-0.00034374714538141767], [0.0008350363693186319]], [[0.00010131305144394113], [-0.0003120405933068732], [0.0005130245842156073]], [[-0.00020257132189598794], [-0.00022718925033570535], [-0.0003819049325205954]], [[-0.00015180824320199237], [-0.00021498390056518294], [0.0005040509634971209]], [[-0.00011099291785263394], [-0.00018590311317302275], [-0.00029494119448550995]], [[-8.026852348940808e-05], [-0.00021678823390761597], [0.0006199171414214575]], [[-0.00016373021102940427], [-0.00024441649976247377], [0.000334696289276359]], [[-0.0001891602246305003], [-0.00029406721322343285], [0.0012099247797034837]], [[-0.00014583836289812086], [-0.0002808794965522831], [6.637647285038218e-05]], [[-9.227843253304459e-05], [-0.0002731143245859719], [-1.564598860539935e-06]], [[-6.11419814590223e-05], [-0.0003024916955019453], [-0.0002603495687545907]], [[-0.00012275007318085217], [-0.0003117251214555286], [-0.0005330614670966981]]], "testDelta": [[[-0.10769567370804214], [0.13016871277552053], [-0.06027295391814835]], [[-0.02948990222645084], [0.04636258742773253], [-0.022752631788296607]], [[-0.011429556592956403], [0.022204801820670333], [-0.030116975708100614]], [[0.0003575590132951998], [0.0126794485731305], [-0.039490426691269814]], [[0.003077036870705483], [0.006240220324791795], [-0.031095257736537298]], [[0.0064546591895219265], [0.004091558114155718], [-0.03725879588553913]], [[0.00709160579964285], [0.002269741704367411], [-0.028762910394526178]], [[0.008612048730803743], [0.0019925535782945635], [-0.018007665365823374]], [[0.009462104229600466], [0.0015644688502497131], [-0.01222883096196928]], [[0.007244221350927674], [0.0008081921026340563], [-0.027558576714433312]], [[0.0065440591332100555], [0.0007878698735523694], [-0.04505400487607033]], [[0.0076421154421389146], [-3.1854436566960425e-06], [-0.021274261761046246]], [[0.008301908105154002], [-0.00017459268132908129], [-0.02536913739954696]], [[0.0058683020385493926], [0.0003338529595210785], [-0.039731783207296804]], [[0.00689156984300044], [0.0004578153065684249], [-0.027080809560404748]], [[0.008062159214470779], [-0.00047584535744373327], [-0.02308395108098485]], [[0.0080711385468148], [-0.0005265892115832595], [-0.018578918480864303]], [[0.008033033145723357], [7.847219631871973e-05], [-0.030733771359020053]], [[0.005877626986489587], [3.023548407916459e-05], [-0.029882121672996927]], [[0.008002959333711137], [0.0012235068972414407], [-0.04500836938755948]], [[0.007802197395498413], [0.0007374203467110648], [-0.04118631854046968]], [[0.007240031056989995], [0.0008843799412838024], [-0.03389865266269085]], [[0.007781738508222576], [0.00030640840474043516], [-0.01920913768340658]], [[0.007882332874594831], [0.0007296632512313352], [-0.023307907975442906]], [[0.008567377063137737], [0.0011787986164115312], [-0.04605608760853412]], [[0.009054739723227309], [0.001026820908421074], [-0.0305507856399737]], [[0.00875927607860184], [0.001818844372881114], [-0.031117328881014397]], [[0.00828907521063235], [0.0013610166043626461], [-0.02255390936138138]], [[0.006657099117968894], [0.001402134665743085], [-0.02687037876160621]], [[0.008135453167611682], [0.00031465641317423643], [-0.02775058826566753]], [[0.008195784112396312], [0.0003713725426141927], [-0.02834648790899654]], [[0.008235218497764766], [0.00035841560931815355], [-0.028186753131926468]], [[0.008259999651548744], [0.000379769007798209], [-0.02912098513464445]], [[0.008219507297431709], [0.0005008509930518484], [-0.029582747393040728]], [[0.008273423368161946], [0.0005530014588328132], [-0.02913052001023942]], [[0.008241536460691245], [0.0005397473246777424], [-0.029152907518004836]], [[0.008307986677349588], [0.0005518297967141721], [-0.029190905977285235]], [[0.008357968141518683], [0.0005154811202130816], [-0.02840114049762051]], [[0.00835683296022829], [0.0005433884583582139], [-0.028455054033458837]], [[0.00830724610090409], [0.0006804809846875382], [-0.028952850935937108]], [[0.00827893240595715], [0.000653540973834261], [-0.02863158857184211]], [[0.00831873798520939], [0.0006568039707497755], [-0.02816381099695984]], [[0.008354221150629889], [0.0007290791478135373], [-0.02893729616316485]], [[0.008397793847528328], [0.0006851169319125263], [-0.028124763175425872]], [[0.008241167590638256], [0.0007298942695299073], [-0.028595165727473233]], [[0.008058618855302952], [0.0008170822307428521], [-0.030104435091927593]], [[0.00808840167338608], [0.0007656378966503049], [-0.029712162860235942]], [[0.008084938813583733], [0.000782412124766222], [-0.02948148119489924]], [[0.008144014005164296], [0.0007772687292702402], [-0.029778203447238836]], [[0.008053180848277249], [0.0008089848544704636], [-0.030099954587073846]], [[0.007748584987335086], [0.0008938436313880762], [-0.030994198667831117]], [[0.0077994233206276735], [0.0009060586496603863], [-0.030108837839447625]], [[0.007840315399626848], [0.0009351590444413911], [-0.030907240187514375]], [[0.007871074929291389], [0.0009042615261957032], [-0.029992962743903465]], [[0.007787385459694423], [0.0008766185834470582], [-0.03027786823817679]], [[0.007761828039591846], [0.0008269534457477706], [-0.02940321813645583]], [[0.007805234619394194], [0.0008401521086996469], [-0.030545872895951114]], [[0.007858892101314735], [0.0008479219317538164], [-0.030613707476366568]], [[0.007890063851953037], [0.0008185397607951937], [-0.030872237572177774]], [[0.00782830958013046], [0.0008092870972280228], [-0.031144613554867254]]]}