{"sizes": [3, 4, 1], "weights": [[[-0.6097352105923698, 0.7490610919644184, -0.6752989230427527], [-2.016054230256275, 2.64502666658605, -1.3869389122385773], [0.8472771381018359, 1.3137079146175032, -0.27696545426488994], [2.3043056275688607, -3.9051819540310397, 1.7254405669040687]], [[-0.8217737696897496, -3.9367950991867255, -0.025925310158731358, 5.867787009109474]]], "biases": [[[0.7289669396663125], [0.2866929592013949], [0.19508137802550557], [-0.15416257856531243]], [[0.2238150569977351]]], "data": [[{"sizes": [3, 4, 1], "weights": [[[-0.6097352105923698, 0.7490610919644184, -0.6752989230427527], [-2.016054230256275, 2.64502666658605, -1.3869389122385773], [0.8472771381018359, 1.3137079146175032, -0.27696545426488994], [2.3043056275688607, -3.9051819540310397, 1.7254405669040687]], [[-0.8217737696897496, -3.9367950991867255, -0.025925310158731358, 5.867787009109474]]], "biases": [[[0.7289669396663125], [0.2866929592013949], [0.19508137802550557], [-0.15416257856531243]], [[0.2238150569977351]]], "data": [[[[0.3], [0.7], [0.4]], [[0.1]]], [[[0.1], [0.9], [0.1]], [[0.02]]], [[[0.9], [0.2], [0.8]], [[1.0]]]]}